{"learner":{"attributes":{"scikit_learn":"{\"_estimator_type\": \"regressor\"}"},"feature_names":["hour_of_day","day_of_week","is_weekend","volume_1h_ago","volume_2h_ago","volume_24h_ago","rolling_avg_6h"],"feature_types":["int","int","int","float","float","float","float"],"gradient_booster":{"model":{"cats":{"enc":[],"feature_segments":[],"sorted_idx":[]},"gbtree_model_param":{"num_parallel_tree":"1","num_trees":"50"},"iteration_indptr":[0,1,2,3,4,5,6,7,8,9,10,11,12,13,14,15,16,17,18,19,20,21,22,23,24,25,26,27,28,29,30,31,32,33,34,35,36,37,38,39,40,41,42,43,44,45,46,47,48,49,50],"tree_info":[0,0,0,0,0,0,0,0,0,0,0,0,0,0,0,0,0,0,0,0,0,0,0,0,0,0,0,0,0,0,0,0,0,0,0,0,0,0,0,0,0,0,0,0,0,0,0,0,0,0],"trees":[{"base_weights":[1.2667294E-6,-2.1668251E1,2.7603971E1,-1.6457453E1,-2.6468493E1,3.0820415E1,-1.5398207E1,-1.918194E1,4.482787E0,-2.956645E1,-2.1519009E1,4.407693E0,3.501117E1,-1.5927488E0,-7.131615E0,-2.3294501E0,-1.2702379E1,7.0499506E0,-1.3761016E0,-3.0196595E0,-2.0145222E1,-2.0380436E1,-2.99824E0,-1.4943012E0,4.972371E0,3.7191188E0,2.4046302E0,-9.1058886E-1,3.8274E-2,1.1359782E0,-1.5071291E0,5.0038046E-1,2.830661E0,-1.2218461E0,-2.3802054E0,-2.9081314E0,-1.9321975E0,6.500247E-1,1.4452986E-1],"categories":[],"categories_nodes":[],"categories_segments":[],"categories_sizes":[],"default_left":[0,0,0,0,0,0,0,0,0,0,0,0,0,0,0,0,0,0,0,0,0,0,0,0,0,0,0,0,0,0,0,0,0,0,0,0,0,0,0],"id":0,"left_children":[1,3,5,7,9,11,13,15,17,19,21,23,25,-1,27,-1,29,31,-1,-1,33,35,-1,-1,37,-1,-1,-1,-1,-1,-1,-1,-1,-1,-1,-1,-1,-1,-1],"loss_changes":[1.0228019E6,2.3526938E4,1.0448681E5,2.6443758E4,6.9844375E3,7.7328125E4,1.18305664E2,1.0602969E4,2.6260947E3,1.1905E3,1.268E3,1.1342134E3,1.35434375E4,0E0,7.766217E1,0E0,9.348389E3,1.946083E3,0E0,0E0,3.4688574E2,1.0497656E3,0E0,0E0,5.025537E2,0E0,0E0,0E0,0E0,0E0,0E0,0E0,0E0,0E0,0E0,0E0,0E0,0E0,0E0],"parents":[2147483647,0,0,1,1,2,2,3,3,4,4,5,5,6,6,7,7,8,8,9,9,10,10,11,11,12,12,14,14,16,16,17,17,20,20,21,21,24,24],"right_children":[2,4,6,8,10,12,14,16,18,20,22,24,26,-1,28,-1,30,32,-1,-1,34,36,-1,-1,38,-1,-1,-1,-1,-1,-1,-1,-1,-1,-1,-1,-1,-1,-1],"split_conditions":[3.331E1,5E0,2E1,3E1,9.52E0,8E0,7.332667E1,5E0,9E0,6.467E1,1.7E1,1E0,1.8E1,-1.5927488E0,4E0,-2.3294501E0,9E0,8E0,-1.3761016E0,-3.0196595E0,6.4616666E0,8E0,-2.99824E0,-1.4943012E0,4.031E1,3.7191188E0,2.4046302E0,-9.1058886E-1,3.8274E-2,1.1359782E0,-1.5071291E0,5.0038046E-1,2.830661E0,-1.2218461E0,-2.3802054E0,-2.9081314E0,-1.9321975E0,6.500247E-1,1.4452986E-1],"split_indices":[3,1,0,5,3,0,6,0,0,5,0,0,0,0,1,0,0,0,0,0,6,0,0,0,4,0,0,0,0,0,0,0,0,0,0,0,0,0,0],"split_type":[0,0,0,0,0,0,0,0,0,0,0,0,0,0,0,0,0,0,0,0,0,0,0,0,0,0,0,0,0,0,0,0,0,0,0,0,0,0,0],"sum_hessian":[1.708E3,9.57E2,7.51E2,4.61E2,4.96E2,6.99E2,5.2E1,4.08E2,5.3E1,3.02E2,1.94E2,9.6E1,6.03E2,4.8E1,4E0,2.48E2,1.6E2,4.7E1,6E0,2.81E2,2.1E1,1.74E2,2E1,2E0,9.4E1,5.01E2,1.02E2,3E0,1E0,1.4E1,1.46E2,4.4E1,3E0,8E0,1.3E1,1.6E1,1.58E2,6.5E1,2.9E1],"tree_param":{"num_deleted":"0","num_feature":"7","num_nodes":"39","size_leaf_vector":"1"}},{"base_weights":[-7.165181E-3,-1.9517298E1,2.4847507E1,-1.4813322E1,-2.3850739E1,2.7746122E1,-1.3904896E1,-1.727035E1,4.07071E0,-2.6631659E1,-1.9407305E1,3.9597096E0,3.152019E1,-1.4367242E0,-6.5929174E0,-2.0974407E0,-1.1434445E1,6.414351E0,-1.25815E0,-2.7253616E0,-1.8957186E1,-1.837005E1,-2.712693E0,-1.3946812E0,4.4834976E0,3.3479478E0,2.1665018E0,-8.422949E-1,3.636036E-2,1.0299536E0,-1.3574413E0,4.5145422E-1,2.6183615E0,-1.1132374E0,-2.1816416E0,-2.634425E0,-1.740193E0,5.860071E-1,1.305585E-1],"categories":[],"categories_nodes":[],"categories_segments":[],"categories_sizes":[],"default_left":[0,0,0,0,0,0,0,0,0,0,0,0,0,0,0,0,0,0,0,0,0,0,0,0,0,0,0,0,0,0,0,0,0,0,0,0,0,0,0],"id":1,"left_children":[1,3,5,7,9,11,13,15,17,19,21,23,25,-1,27,-1,29,31,-1,-1,33,35,-1,-1,37,-1,-1,-1,-1,-1,-1,-1,-1,-1,-1,-1,-1,-1,-1],"loss_changes":[8.292098E5,1.9174938E4,8.485672E4,2.1506453E4,5.6245E3,6.271525E4,8.4453125E1,8.601328E3,2.1881494E3,9.296406E2,1.0630781E3,9.7231494E2,1.09373125E4,0E0,6.671585E1,0E0,7.627926E3,1.6845684E3,0E0,0E0,3.3882715E2,8.925586E2,0E0,0E0,4.0793896E2,0E0,0E0,0E0,0E0,0E0,0E0,0E0,0E0,0E0,0E0,0E0,0E0,0E0,0E0],"parents":[2147483647,0,0,1,1,2,2,3,3,4,4,5,5,6,6,7,7,8,8,9,9,10,10,11,11,12,12,14,14,16,16,17,17,20,20,21,21,24,24],"right_children":[2,4,6,8,10,12,14,16,18,20,22,24,26,-1,28,-1,30,32,-1,-1,34,36,-1,-1,38,-1,-1,-1,-1,-1,-1,-1,-1,-1,-1,-1,-1,-1,-1],"split_conditions":[3.331E1,5E0,2E1,3E1,9.52E0,8E0,7.332667E1,5E0,9E0,5.893E1,1.7E1,1E0,1.8E1,-1.4367242E0,4E0,-2.0974407E0,9E0,8E0,-1.25815E0,-2.7253616E0,6.4616666E0,8E0,-2.712693E0,-1.3946812E0,4.031E1,3.3479478E0,2.1665018E0,-8.422949E-1,3.636036E-2,1.0299536E0,-1.3574413E0,4.5145422E-1,2.6183615E0,-1.1132374E0,-2.1816416E0,-2.634425E0,-1.740193E0,5.860071E-1,1.305585E-1],"split_indices":[3,1,0,5,3,0,6,0,0,5,0,0,0,0,1,0,0,0,0,0,6,0,0,0,4,0,0,0,0,0,0,0,0,0,0,0,0,0,0],"split_type":[0,0,0,0,0,0,0,0,0,0,0,0,0,0,0,0,0,0,0,0,0,0,0,0,0,0,0,0,0,0,0,0,0,0,0,0,0,0,0],"sum_hessian":[1.708E3,9.57E2,7.51E2,4.61E2,4.96E2,6.99E2,5.2E1,4.08E2,5.3E1,3.02E2,1.94E2,9.6E1,6.03E2,4.8E1,4E0,2.48E2,1.6E2,4.7E1,6E0,2.77E2,2.5E1,1.74E2,2E1,2E0,9.4E1,5.01E2,1.02E2,3E0,1E0,1.4E1,1.46E2,4.4E1,3E0,8E0,1.7E1,1.6E1,1.58E2,6.5E1,2.9E1],"tree_param":{"num_deleted":"0","num_feature":"7","num_nodes":"39","size_leaf_vector":"1"}},{"base_weights":[-1.2959173E-2,-1.7705648E1,2.2207954E1,-1.3580607E1,-2.1486584E1,2.4841696E1,-1.2588261E1,-1.5714482E1,3.0219193E0,-2.3988361E1,-1.7447592E1,3.2058806E0,2.8329512E1,-1.2914385E0,-5.283106E0,-1.888539E0,-1.0617835E1,5.1209216E0,-1.1503087E0,-2.453806E0,-1.7188194E1,-1.6485397E1,-2.4543417E0,-1.6148261E0,3.9789085E0,3.0070297E1,1.9519552E1,-7.274423E-1,3.4542274E-2,8.1057376E-1,-1.2212278E0,4.07312E-1,1.9130973E0,-1.0142828E0,-1.9755977E0,-2.3759966E0,-1.5644394E0,5.173043E-1,1.17937885E-1,3.0169923E0,-1.0071064E0,5.4921764E-1,1.9603232E0],"categories":[],"categories_nodes":[],"categories_segments":[],"categories_sizes":[],"default_left":[0,0,0,0,0,0,0,0,0,0,0,0,0,0,0,0,0,0,0,0,0,0,0,0,0,0,0,0,0,0,0,0,0,0,0,0,0,0,0,0,0,0,0],"id":2,"left_children":[1,3,5,7,9,11,13,15,17,19,21,23,25,-1,27,-1,29,31,-1,-1,33,35,-1,-1,37,39,41,-1,-1,-1,-1,-1,-1,-1,-1,-1,-1,-1,-1,-1,-1,-1,-1],"loss_changes":[6.722827E5,1.4556094E4,6.977903E4,1.6273375E4,4.58325E3,5.3109688E4,6.04209E1,6.3608438E3,1.6747719E3,7.108594E2,9.131172E2,1.5454202E3,8.7221875E3,0E0,4.7345497E1,0E0,4.815865E3,6.1202576E2,0E0,0E0,2.699839E2,6.866914E2,0E0,0E0,3.1482825E2,2.3234375E3,1.3234375E1,0E0,0E0,0E0,0E0,0E0,0E0,0E0,0E0,0E0,0E0,0E0,0E0,0E0,0E0,0E0,0E0],"parents":[2147483647,0,0,1,1,2,2,3,3,4,4,5,5,6,6,7,7,8,8,9,9,10,10,11,11,12,12,14,14,16,16,17,17,20,20,21,21,24,24,25,25,26,26],"right_children":[2,4,6,8,10,12,14,16,18,20,22,24,26,-1,28,-1,30,32,-1,-1,34,36,-1,-1,38,40,42,-1,-1,-1,-1,-1,-1,-1,-1,-1,-1,-1,-1,-1,-1,-1,-1],"split_conditions":[3.169E1,5E0,2E1,3E1,9.52E0,8E0,7.3831665E1,5E0,9E0,5.893E1,1.7E1,1E0,1.8E1,-1.2914385E0,4E0,-1.888539E0,9E0,8E0,-1.1503087E0,-2.453806E0,6.4616666E0,8E0,-2.4543417E0,-1.6148261E0,4.031E1,5E0,6.6081665E1,-7.274423E-1,3.4542274E-2,8.1057376E-1,-1.2212278E0,4.07312E-1,1.9130973E0,-1.0142828E0,-1.9755977E0,-2.3759966E0,-1.5644394E0,5.173043E-1,1.17937885E-1,3.0169923E0,-1.0071064E0,5.4921764E-1,1.9603232E0],"split_indices":[3,1,0,5,3,0,6,0,0,5,0,0,0,0,1,0,0,0,0,0,6,0,0,0,4,1,6,0,0,0,0,0,0,0,0,0,0,0,0,0,0,0,0],"split_type":[0,0,0,0,0,0,0,0,0,0,0,0,0,0,0,0,0,0,0,0,0,0,0,0,0,0,0,0,0,0,0,0,0,0,0,0,0,0,0,0,0,0,0],"sum_hessian":[1.708E3,9.51E2,7.57E2,4.57E2,4.94E2,7.04E2,5.3E1,4.05E2,5.2E1,3.02E2,1.92E2,9.8E1,6.06E2,5E1,3E0,2.48E2,1.57E2,4.6E1,6E0,2.77E2,2.5E1,1.72E2,2E1,3E0,9.5E1,5.04E2,1.02E2,2E0,1E0,1.2E1,1.45E2,4.4E1,2E0,8E0,1.7E1,1.5E1,1.57E2,6.6E1,2.9E1,5.03E2,1E0,1E0,1.01E2],"tree_param":{"num_deleted":"0","num_feature":"7","num_nodes":"43","size_leaf_vector":"1"}},{"base_weights":[-1.834033E-2,-1.5836705E1,2.013327E1,-1.2000844E1,-1.9370571E1,2.2487179E1,-1.1335948E1,-1.4000428E1,3.3663924E0,-2.1607492E1,-1.57954035E1,3.208137E0,2.5546085E1,-1.1694754E0,-5.552455E0,-1.7004436E0,-9.267518E0,1.7990001E0,2.2509048E0,-2.2093081E0,-1.5584371E1,-1.4935879E1,-2.2205946E0,-1.1940475E0,3.6527445E0,2.7127218E0,1.7591963E1,-7.104644E-1,3.281517E-2,8.454167E-1,-1.1012809E0,3.6748612E-1,-1.0517106E0,-1.2181739E0,-2.1717575E0,-2.1673331E0,-1.4121586E0,4.9076113E-1,1.2570238E-1,1.7673806E0,4.622015E-1],"categories":[],"categories_nodes":[],"categories_segments":[],"categories_sizes":[],"default_left":[0,0,0,0,0,0,0,0,0,0,0,0,0,0,0,0,0,0,0,0,0,0,0,0,0,0,0,0,0,0,0,0,0,0,0,0,0,0,0,0,0],"id":3,"left_children":[1,3,5,7,9,11,13,15,17,19,21,23,25,-1,27,-1,29,31,-1,-1,33,35,-1,-1,37,-1,39,-1,-1,-1,-1,-1,-1,-1,-1,-1,-1,-1,-1,-1,-1],"loss_changes":[5.450892E5,1.2753609E4,5.595978E4,1.4243508E4,3.6333906E3,4.1199E4,4.5049316E1,5.657453E3,1.5797249E3,5.4190625E2,7.4278516E2,6.969283E2,7.119E3,0E0,4.7970474E1,0E0,5.072753E3,1.2169174E3,0E0,0E0,2.780371E2,6.5403516E2,0E0,0E0,2.7943066E2,0E0,2.7648438E1,0E0,0E0,0E0,0E0,0E0,0E0,0E0,0E0,0E0,0E0,0E0,0E0,0E0,0E0],"parents":[2147483647,0,0,1,1,2,2,3,3,4,4,5,5,6,6,7,7,8,8,9,9,10,10,11,11,12,12,14,14,16,16,17,17,20,20,21,21,24,24,26,26],"right_children":[2,4,6,8,10,12,14,16,18,20,22,24,26,-1,28,-1,30,32,-1,-1,34,36,-1,-1,38,-1,40,-1,-1,-1,-1,-1,-1,-1,-1,-1,-1,-1,-1,-1,-1],"split_conditions":[3.331E1,5E0,2E1,3E1,9.52E0,8E0,7.332667E1,5E0,3.229E1,5.893E1,1.7E1,1E0,1.8E1,-1.1694754E0,4E0,-1.7004436E0,9E0,8E0,2.2509048E0,-2.2093081E0,1.6E1,8E0,-2.2205946E0,-1.1940475E0,2.1441668E1,2.7127218E0,8.602E1,-7.104644E-1,3.281517E-2,8.454167E-1,-1.1012809E0,3.6748612E-1,-1.0517106E0,-1.2181739E0,-2.1717575E0,-2.1673331E0,-1.4121586E0,4.9076113E-1,1.2570238E-1,1.7673806E0,4.622015E-1],"split_indices":[3,1,0,5,3,0,6,0,4,5,0,0,0,0,1,0,0,0,0,0,0,0,0,0,6,0,3,0,0,0,0,0,0,0,0,0,0,0,0,0,0],"split_type":[0,0,0,0,0,0,0,0,0,0,0,0,0,0,0,0,0,0,0,0,0,0,0,0,0,0,0,0,0,0,0,0,0,0,0,0,0,0,0,0,0],"sum_hessian":[1.708E3,9.57E2,7.51E2,4.61E2,4.96E2,6.99E2,5.2E1,4.08E2,5.3E1,3.02E2,1.94E2,9.6E1,6.03E2,4.8E1,4E0,2.48E2,1.6E2,5E1,3E0,2.77E2,2.5E1,1.74E2,2E1,2E0,9.4E1,5.01E2,1.02E2,3E0,1E0,1.4E1,1.46E2,4.4E1,6E0,1.8E1,7E0,1.6E1,1.58E2,6.1E1,3.3E1,1.01E2,1E0],"tree_param":{"num_deleted":"0","num_feature":"7","num_nodes":"41","size_leaf_vector":"1"}},{"base_weights":[-2.1931475E-2,-1.4368213E1,1.7996119E1,-1.1009096E1,-1.7447218E1,2.0135456E1,-1.026739E1,-1.2741676E1,2.470846E0,-1.9465221E1,-1.4188656E1,2.5685842E0,2.2967392E1,-1.0575508E0,-5.132739E0,-1.5310822E0,-8.61219E0,4.21839E0,-9.615641E0,-1.989172E0,-1.4156316E1,-1.339016E1,-2.0091093E0,-1.3798283E0,3.223781E0,2.4372679E1,1.5854413E1,-6.571796E-1,3.117447E-2,6.577131E-1,-9.905677E-1,3.3155426E-1,1.6354971E0,-1.0350207E0,-2.6041242E-1,-1.1027678E0,-1.9817289E0,-1.9500593E0,-1.2686634E0,4.2128712E-1,9.0735346E-2,2.4456203E0,-8.8614315E-1,4.3338776E-1,1.5924871E0],"categories":[],"categories_nodes":[],"categories_segments":[],"categories_sizes":[],"default_left":[0,0,0,0,0,0,0,0,0,0,0,0,0,0,0,0,0,0,0,0,0,0,0,0,0,0,0,0,0,0,0,0,0,0,0,0,0,0,0,0,0,0,0,0,0],"id":4,"left_children":[1,3,5,7,9,11,13,15,17,19,21,23,25,-1,27,-1,29,31,33,-1,35,37,-1,-1,39,41,43,-1,-1,-1,-1,-1,-1,-1,-1,-1,-1,-1,-1,-1,-1,-1,-1,-1,-1],"loss_changes":[4.4202144E5,9.654203E3,4.603939E4,1.0728117E4,2.9788281E3,3.50135E4,3.1150879E1,4.1754844E3,1.1600107E3,4.0446875E2,6.4060156E2,1.1061108E3,5.6810312E3,0E0,4.1223343E1,0E0,3.1694053E3,4.6077594E2,9.099731E0,0E0,2.4195068E2,4.9630273E2,0E0,0E0,2.1612842E2,1.6185312E3,1.4589844E1,0E0,0E0,0E0,0E0,0E0,0E0,0E0,0E0,0E0,0E0,0E0,0E0,0E0,0E0,0E0,0E0,0E0,0E0],"parents":[2147483647,0,0,1,1,2,2,3,3,4,4,5,5,6,6,7,7,8,8,9,9,10,10,11,11,12,12,14,14,16,16,17,17,18,18,20,20,21,21,24,24,25,25,26,26],"right_children":[2,4,6,8,10,12,14,16,18,20,22,24,26,-1,28,-1,30,32,34,-1,36,38,-1,-1,40,42,44,-1,-1,-1,-1,-1,-1,-1,-1,-1,-1,-1,-1,-1,-1,-1,-1,-1,-1],"split_conditions":[3.169E1,5E0,2E1,3E1,9.52E0,8E0,7.332667E1,5E0,9E0,5.893E1,1.7E1,1E0,1.8E1,-1.0575508E0,4E0,-1.5310822E0,9E0,8E0,2.5E1,-1.989172E0,1.6E1,8E0,-2.0091093E0,-1.3798283E0,4.031E1,5E0,6.6081665E1,-6.571796E-1,3.117447E-2,6.577131E-1,-9.905677E-1,3.3155426E-1,1.6354971E0,-1.0350207E0,-2.6041242E-1,-1.1027678E0,-1.9817289E0,-1.9500593E0,-1.2686634E0,4.2128712E-1,9.0735346E-2,2.4456203E0,-8.8614315E-1,4.3338776E-1,1.5924871E0],"split_indices":[3,1,0,5,3,0,6,0,0,5,0,0,0,0,1,0,0,0,3,0,0,0,0,0,4,1,6,0,0,0,0,0,0,0,0,0,0,0,0,0,0,0,0,0,0],"split_type":[0,0,0,0,0,0,0,0,0,0,0,0,0,0,0,0,0,0,0,0,0,0,0,0,0,0,0,0,0,0,0,0,0,0,0,0,0,0,0,0,0,0,0,0,0],"sum_hessian":[1.708E3,9.51E2,7.57E2,4.57E2,4.94E2,7.04E2,5.3E1,4.05E2,5.2E1,3.02E2,1.92E2,9.8E1,6.06E2,4.9E1,4E0,2.48E2,1.57E2,4.6E1,6E0,2.77E2,2.5E1,1.72E2,2E1,3E0,9.5E1,5.04E2,1.02E2,3E0,1E0,1.2E1,1.45E2,4.4E1,2E0,5E0,1E0,1.8E1,7E0,1.5E1,1.57E2,6.6E1,2.9E1,5.03E2,1E0,1E0,1.01E2],"tree_param":{"num_deleted":"0","num_feature":"7","num_nodes":"45","size_leaf_vector":"1"}},{"base_weights":[-2.5859198E-2,-1.2943465E1,1.619787E1,-9.9107895E0,-1.5723307E1,1.8125765E1,-9.271829E0,-1.14721E1,2.2364333E0,-1.7535444E1,-1.2796878E1,2.3029594E0,2.0676558E1,-9.539108E-1,-4.7446656E0,-1.3785889E0,-7.753078E0,3.8384027E0,-8.839138E0,-1.7909702E0,-1.2859318E1,-1.2069749E1,-1.8177656E0,-1.2763413E0,2.906736E0,2.1938498E1,1.428864E1,-6.078911E-1,2.9615784E-2,5.97001E-1,-8.921893E-1,2.991356E-1,1.5264639E0,-9.487689E-1,-2.473918E-1,-9.982951E-1,-1.8083276E0,-1.7672411E0,-1.1426E0,3.9010185E-1,9.788967E-2,2.2015433E0,-8.41836E-1,1.521896E0,1.1953021E0],"categories":[],"categories_nodes":[],"categories_segments":[],"categories_sizes":[],"default_left":[0,0,0,0,0,0,0,0,0,0,0,0,0,0,0,0,0,0,0,0,0,0,0,0,0,0,0,0,0,0,0,0,0,0,0,0,0,0,0,0,0,0,0,0,0],"id":5,"left_children":[1,3,5,7,9,11,13,15,17,19,21,23,25,-1,27,-1,29,31,33,-1,35,37,-1,-1,39,41,43,-1,-1,-1,-1,-1,-1,-1,-1,-1,-1,-1,-1,-1,-1,-1,-1,-1,-1],"loss_changes":[3.5836772E5,7.869875E3,3.738808E4,8.711895E3,2.4006328E3,2.8406688E4,2.0081055E1,3.3867578E3,9.742927E2,2.9996875E2,5.357168E2,9.37675E2,4.5796562E3,0E0,3.5428787E1,0E0,2.587545E3,4.092303E2,5.425476E0,0E0,2.1015234E2,4.220371E2,0E0,0E0,1.8019568E2,1.36475E3,4.189258E1,0E0,0E0,0E0,0E0,0E0,0E0,0E0,0E0,0E0,0E0,0E0,0E0,0E0,0E0,0E0,0E0,0E0,0E0],"parents":[2147483647,0,0,1,1,2,2,3,3,4,4,5,5,6,6,7,7,8,8,9,9,10,10,11,11,12,12,14,14,16,16,17,17,18,18,20,20,21,21,24,24,25,25,26,26],"right_children":[2,4,6,8,10,12,14,16,18,20,22,24,26,-1,28,-1,30,32,34,-1,36,38,-1,-1,40,42,44,-1,-1,-1,-1,-1,-1,-1,-1,-1,-1,-1,-1,-1,-1,-1,-1,-1,-1],"split_conditions":[3.169E1,5E0,2E1,3E1,9.52E0,8E0,7.332667E1,5E0,9E0,5.893E1,1.7E1,1E0,1.8E1,-9.539108E-1,4E0,-1.3785889E0,9E0,8E0,2.5E1,-1.7909702E0,1.6E1,8E0,-1.8177656E0,-1.2763413E0,2.1441668E1,5E0,7.572E1,-6.078911E-1,2.9615784E-2,5.97001E-1,-8.921893E-1,2.991356E-1,1.5264639E0,-9.487689E-1,-2.473918E-1,-9.982951E-1,-1.8083276E0,-1.7672411E0,-1.1426E0,3.9010185E-1,9.788967E-2,2.2015433E0,-8.41836E-1,1.521896E0,1.1953021E0],"split_indices":[3,1,0,5,3,0,6,0,0,5,0,0,0,0,1,0,0,0,3,0,0,0,0,0,6,1,4,0,0,0,0,0,0,0,0,0,0,0,0,0,0,0,0,0,0],"split_type":[0,0,0,0,0,0,0,0,0,0,0,0,0,0,0,0,0,0,0,0,0,0,0,0,0,0,0,0,0,0,0,0,0,0,0,0,0,0,0,0,0,0,0,0,0],"sum_hessian":[1.708E3,9.51E2,7.57E2,4.57E2,4.94E2,7.04E2,5.3E1,4.05E2,5.2E1,3.02E2,1.92E2,9.8E1,6.06E2,4.9E1,4E0,2.48E2,1.57E2,4.6E1,6E0,2.77E2,2.5E1,1.72E2,2E1,3E0,9.5E1,5.04E2,1.02E2,3E0,1E0,1.2E1,1.45E2,4.4E1,2E0,5E0,1E0,1.8E1,7E0,1.5E1,1.57E2,6.2E1,3.3E1,5.03E2,1E0,6.9E1,3.3E1],"tree_param":{"num_deleted":"0","num_feature":"7","num_nodes":"45","size_leaf_vector":"1"}},{"base_weights":[-2.8312718E-2,-1.1577972E1,1.4685254E1,-8.750088E0,-1.4183414E1,1.6407997E1,-8.345043E0,-1.0218629E1,2.5347896E0,-1.5797073E1,-1.1603301E1,2.3480778E0,1.86388E1,-8.578734E0,-4.3858542E0,-1.2412835E0,-6.7616353E0,1.2660048E0,1.8078098E0,-1.6092259E0,-1.1295286E1,-1.0955818E1,-1.6446451E0,-9.373664E-1,2.6935213E0,1.9781994E0,1.2886156E1,-6.833033E0,-9.4565785E-1,-5.6229925E-1,2.8134918E-2,6.2974364E-1,-8.048196E-1,2.698866E-1,-8.1261045E-1,-6.290812E-1,-1.3705643E0,-1.6197271E0,-1.0326507E0,3.560768E-1,6.957943E-2,7.7344817E-1,1.3181232E0,-7.569569E-1,-1.9944997E-1],"categories":[],"categories_nodes":[],"categories_segments":[],"categories_sizes":[],"default_left":[0,0,0,0,0,0,0,0,0,0,0,0,0,0,0,0,0,0,0,0,0,0,0,0,0,0,0,0,0,0,0,0,0,0,0,0,0,0,0,0,0,0,0,0,0],"id":6,"left_children":[1,3,5,7,9,11,13,15,17,19,21,23,25,27,29,-1,31,33,-1,-1,35,37,-1,-1,39,-1,41,43,-1,-1,-1,-1,-1,-1,-1,-1,-1,-1,-1,-1,-1,-1,-1,-1,-1],"loss_changes":[2.905918E5,6.9343203E3,2.997275E4,7.6823086E3,1.8859375E3,2.1911672E4,1.1412109E1,3.0184805E3,1.042053E3,2.20875E2,4.3130664E2,4.180207E2,3.7172188E3,1.0473145E1,3.0451904E1,0E0,2.75569E3,7.0826843E2,0E0,0E0,1.791565E2,4.0997656E2,0E0,0E0,1.6211206E2,0E0,5.4623047E1,5.617755E1,0E0,0E0,0E0,0E0,0E0,0E0,0E0,0E0,0E0,0E0,0E0,0E0,0E0,0E0,0E0,0E0,0E0],"parents":[2147483647,0,0,1,1,2,2,3,3,4,4,5,5,6,6,7,7,8,8,9,9,10,10,11,11,12,12,13,13,14,14,16,16,17,17,20,20,21,21,24,24,26,26,27,27],"right_children":[2,4,6,8,10,12,14,16,18,20,22,24,26,28,30,-1,32,34,-1,-1,36,38,-1,-1,40,-1,42,44,-1,-1,-1,-1,-1,-1,-1,-1,-1,-1,-1,-1,-1,-1,-1,-1,-1],"split_conditions":[3.331E1,5E0,2E1,3E1,9.52E0,8E0,7.332667E1,5E0,3.229E1,6.467E1,1.7E1,1E0,1.8E1,5.63E1,4E0,-1.2412835E0,9E0,8E0,1.8078098E0,-1.6092259E0,6.4616666E0,8E0,-1.6446451E0,-9.373664E-1,4.031E1,1.9781994E0,6.794666E1,5.516E1,-9.4565785E-1,-5.6229925E-1,2.8134918E-2,6.2974364E-1,-8.048196E-1,2.698866E-1,-8.1261045E-1,-6.290812E-1,-1.3705643E0,-1.6197271E0,-1.0326507E0,3.560768E-1,6.957943E-2,7.7344817E-1,1.3181232E0,-7.569569E-1,-1.9944997E-1],"split_indices":[3,1,0,5,3,0,6,0,4,5,0,0,0,4,1,0,0,0,0,0,6,0,0,0,4,0,6,4,0,0,0,0,0,0,0,0,0,0,0,0,0,0,0,0,0],"split_type":[0,0,0,0,0,0,0,0,0,0,0,0,0,0,0,0,0,0,0,0,0,0,0,0,0,0,0,0,0,0,0,0,0,0,0,0,0,0,0,0,0,0,0,0,0],"sum_hessian":[1.708E3,9.57E2,7.51E2,4.61E2,4.96E2,6.99E2,5.2E1,4.08E2,5.3E1,3.02E2,1.94E2,9.6E1,6.03E2,4.8E1,4E0,2.48E2,1.6E2,5E1,3E0,2.81E2,2.1E1,1.74E2,2E1,2E0,9.4E1,5.01E2,1.02E2,1.9E1,2.9E1,3E0,1E0,1.4E1,1.46E2,4.4E1,6E0,8E0,1.3E1,1.6E1,1.58E2,6.5E1,2.9E1,7E0,9.5E1,1.6E1,3E0],"tree_param":{"num_deleted":"0","num_feature":"7","num_nodes":"45","size_leaf_vector":"1"}},{"base_weights":[-2.9539479E-2,-1.0503789E1,1.3125494E1,-8.03473E0,-1.2767073E1,1.469315E1,-7.5841804E0,-9.301968E0,1.8243829E0,-1.4229277E1,-1.0405338E1,1.839468E0,1.6765343E1,-7.7855043E0,-4.054101E0,-1.1176537E0,-6.2888675E0,3.1638162E0,-7.429581E0,-1.4521737E0,-1.0554915E1,-9.80201E0,-1.4880122E0,-1.0932542E0,2.352474E0,1.7782028E1,1.1617847E1,-6.333427E0,-8.5424423E-1,-5.2012676E-1,2.6728248E-2,4.8376295E-1,-7.236509E-1,2.4349777E-1,1.304179E0,-8.0708706E-1,-1.790924E-1,-8.0258507E-1,-1.5242081E0,-1.4497131E0,-9.264517E-1,-3.5020596E-1,2.5789866E-1,1.7846998E0,-7.481118E-1,1.4468489E0,1.0800816E0,-6.979018E-1,-1.8449126E-1],"categories":[],"categories_nodes":[],"categories_segments":[],"categories_sizes":[],"default_left":[0,0,0,0,0,0,0,0,0,0,0,0,0,0,0,0,0,0,0,0,0,0,0,0,0,0,0,0,0,0,0,0,0,0,0,0,0,0,0,0,0,0,0,0,0,0,0,0,0],"id":7,"left_children":[1,3,5,7,9,11,13,15,17,19,21,23,25,27,29,-1,31,33,35,-1,37,39,-1,-1,41,43,45,47,-1,-1,-1,-1,-1,-1,-1,-1,-1,-1,-1,-1,-1,-1,-1,-1,-1,-1,-1,-1,-1],"loss_changes":[2.3561947E5,5.2173594E3,2.4720367E4,5.7391426E3,1.5613438E3,1.8747062E4,6.814209E0,2.2229102E3,6.804445E2,1.7233203E2,3.7520117E2,6.743782E2,2.9700781E3,8.535156E-1,2.6176949E1,0E0,1.7009473E3,3.0661755E2,1.0857697E1,0E0,1.858772E2,3.0227148E2,0E0,0E0,1.3633972E2,9.623906E2,8.362207E1,4.797693E1,0E0,0E0,0E0,0E0,0E0,0E0,0E0,0E0,0E0,0E0,0E0,0E0,0E0,0E0,0E0,0E0,0E0,0E0,0E0,0E0,0E0],"parents":[2147483647,0,0,1,1,2,2,3,3,4,4,5,5,6,6,7,7,8,8,9,9,10,10,11,11,12,12,13,13,14,14,16,16,17,17,18,18,20,20,21,21,24,24,25,25,26,26,27,27],"right_children":[2,4,6,8,10,12,14,16,18,20,22,24,26,28,30,-1,32,34,36,-1,38,40,-1,-1,42,44,46,48,-1,-1,-1,-1,-1,-1,-1,-1,-1,-1,-1,-1,-1,-1,-1,-1,-1,-1,-1,-1,-1],"split_conditions":[3.169E1,5E0,2E1,3E1,9.52E0,8E0,7.332667E1,5E0,9E0,5.893E1,1.7E1,1E0,1.8E1,5.63E1,4E0,-1.1176537E0,9E0,8E0,4.9081665E1,-1.4521737E0,1.6E1,8E0,-1.4880122E0,-1.0932542E0,7.23E0,5E0,9.37E0,5.516E1,-8.5424423E-1,-5.2012676E-1,2.6728248E-2,4.8376295E-1,-7.236509E-1,2.4349777E-1,1.304179E0,-8.0708706E-1,-1.790924E-1,-8.0258507E-1,-1.5242081E0,-1.4497131E0,-9.264517E-1,-3.5020596E-1,2.5789866E-1,1.7846998E0,-7.481118E-1,1.4468489E0,1.0800816E0,-6.979018E-1,-1.8449126E-1],"split_indices":[3,1,0,5,3,0,6,0,0,5,0,0,0,4,1,0,0,0,6,0,0,0,0,0,4,1,5,4,0,0,0,0,0,0,0,0,0,0,0,0,0,0,0,0,0,0,0,0,0],"split_type":[0,0,0,0,0,0,0,0,0,0,0,0,0,0,0,0,0,0,0,0,0,0,0,0,0,0,0,0,0,0,0,0,0,0,0,0,0,0,0,0,0,0,0,0,0,0,0,0,0],"sum_hessian":[1.708E3,9.51E2,7.57E2,4.57E2,4.94E2,7.04E2,5.3E1,4.05E2,5.2E1,3.02E2,1.92E2,9.8E1,6.06E2,4.9E1,4E0,2.48E2,1.57E2,4.6E1,6E0,2.77E2,2.5E1,1.72E2,2E1,3E0,9.5E1,5.04E2,1.02E2,2E1,2.9E1,3E0,1E0,1.2E1,1.45E2,4.4E1,2E0,5E0,1E0,1.8E1,7E0,1.5E1,1.57E2,3E0,9.2E1,5.03E2,1E0,1.9E1,8.3E1,1.7E1,3E0],"tree_param":{"num_deleted":"0","num_feature":"7","num_nodes":"49","size_leaf_vector":"1"}},{"base_weights":[-3.143694E-2,-9.4622755E0,1.1813141E1,-7.232996E0,-1.1505806E1,1.3227208E1,-6.8670588E0,-8.375115E0,1.6525403E0,-1.2818821E1,-9.384825E0,1.6435443E0,1.509468E1,-7.041687E-1,-3.7473712E0,-1.0063373E0,-5.6615E0,2.8803656E0,-6.827506E0,-1.3074788E0,-9.588915E0,-8.835543E0,-1.3462967E0,-1.0112602E0,2.1162634E0,1.600588E1,1.0480596E1,-4.811173E-1,2.539177E-2,4.3910772E-1,-6.517815E-1,2.1968928E-1,1.2172335E0,-1.4623804E-1,-7.4779636E-1,-7.265506E-1,-1.3908399E0,-1.3138026E0,-8.343927E-1,2.951134E-1,5.07054E-2,1.606584E0,-7.107062E-1,1.3185457E0,9.711812E-1],"categories":[],"categories_nodes":[],"categories_segments":[],"categories_sizes":[],"default_left":[0,0,0,0,0,0,0,0,0,0,0,0,0,0,0,0,0,0,0,0,0,0,0,0,0,0,0,0,0,0,0,0,0,0,0,0,0,0,0,0,0,0,0,0,0],"id":8,"left_children":[1,3,5,7,9,11,13,15,17,19,21,23,25,-1,27,-1,29,31,33,-1,35,37,-1,-1,39,41,43,-1,-1,-1,-1,-1,-1,-1,-1,-1,-1,-1,-1,-1,-1,-1,-1,-1,-1],"loss_changes":[1.9101442E5,4.253711E3,2.0113445E4,4.6617793E3,1.2582109E3,1.5225875E4,3.0305176E0,1.8030273E3,5.7150244E2,1.2512891E2,3.133789E2,5.715791E2,2.3842812E3,0E0,2.2504532E1,0E0,1.3887114E3,2.7174667E2,1.3492828E1,0E0,1.5988257E2,2.5630078E2,0E0,0E0,1.27477875E2,8.140469E2,8.612793E1,0E0,0E0,0E0,0E0,0E0,0E0,0E0,0E0,0E0,0E0,0E0,0E0,0E0,0E0,0E0,0E0,0E0,0E0],"parents":[2147483647,0,0,1,1,2,2,3,3,4,4,5,5,6,6,7,7,8,8,9,9,10,10,11,11,12,12,14,14,16,16,17,17,18,18,20,20,21,21,24,24,25,25,26,26],"right_children":[2,4,6,8,10,12,14,16,18,20,22,24,26,-1,28,-1,30,32,34,-1,36,38,-1,-1,40,42,44,-1,-1,-1,-1,-1,-1,-1,-1,-1,-1,-1,-1,-1,-1,-1,-1,-1,-1],"split_conditions":[3.169E1,5E0,2E1,3E1,9.52E0,8E0,7.332667E1,5E0,9E0,5.893E1,1.7E1,1E0,1.8E1,-7.041687E-1,4E0,-1.0063373E0,9E0,8E0,1.512E1,-1.3074788E0,1.6E1,8E0,-1.3462967E0,-1.0112602E0,2.1441668E1,5E0,6.77E1,-4.811173E-1,2.539177E-2,4.3910772E-1,-6.517815E-1,2.1968928E-1,1.2172335E0,-1.4623804E-1,-7.4779636E-1,-7.265506E-1,-1.3908399E0,-1.3138026E0,-8.343927E-1,2.951134E-1,5.07054E-2,1.606584E0,-7.107062E-1,1.3185457E0,9.711812E-1],"split_indices":[3,1,0,5,3,0,6,0,0,5,0,0,0,0,1,0,0,0,4,0,0,0,0,0,6,1,4,0,0,0,0,0,0,0,0,0,0,0,0,0,0,0,0,0,0],"split_type":[0,0,0,0,0,0,0,0,0,0,0,0,0,0,0,0,0,0,0,0,0,0,0,0,0,0,0,0,0,0,0,0,0,0,0,0,0,0,0,0,0,0,0,0,0],"sum_hessian":[1.708E3,9.51E2,7.57E2,4.57E2,4.94E2,7.04E2,5.3E1,4.05E2,5.2E1,3.02E2,1.92E2,9.8E1,6.06E2,4.9E1,4E0,2.48E2,1.57E2,4.6E1,6E0,2.77E2,2.5E1,1.72E2,2E1,3E0,9.5E1,5.04E2,1.02E2,3E0,1E0,1.2E1,1.45E2,4.4E1,2E0,1E0,5E0,1.8E1,7E0,1.5E1,1.57E2,6.2E1,3.3E1,5.03E2,1E0,1.9E1,8.3E1],"tree_param":{"num_deleted":"0","num_feature":"7","num_nodes":"45","size_leaf_vector":"1"}},{"base_weights":[-3.1941224E-2,-8.524026E0,1.0633622E1,-6.5111723E0,-1.03692045E1,1.1908063E1,-6.201833E0,-7.540606E0,1.4975303E0,-1.16563425E1,-8.610381E0,1.472469E0,1.3590462E1,-5.045995E0,-6.7844567E0,-9.061076E-1,-5.0966964E0,2.6229026E0,-6.2724743E0,-1.1838806E0,-8.312377E0,-8.06278E0,-1.2405833E0,-9.3541557E-1,1.9082401E0,1.4407067E1,9.454767E0,-5.5946436E0,-1.1784172E0,-7.7931666E-1,-4.8588386E0,3.9857486E-1,-5.8704984E-1,1.9820863E-1,1.1360848E0,-3.5466787E-1,-8.724642E-1,-3.5667327E-1,-1.1008085E0,-1.1548654E0,-7.460978E-1,-3.4607407E-1,2.1186452E-1,1.4462446E0,-6.7517084E-1,1.2049782E0,8.7243503E-1,-3.4216914E-1,-6.3343376E-1,-3.3963713E-1,2.7377224E-1,-9.57311E-3,-5.6447124E-1],"categories":[],"categories_nodes":[],"categories_segments":[],"categories_sizes":[],"default_left":[0,0,0,0,0,0,0,0,0,0,0,0,0,0,0,0,0,0,0,0,0,0,0,0,0,0,0,0,0,0,0,0,0,0,0,0,0,0,0,0,0,0,0,0,0,0,0,0,0,0,0,0,0],"id":9,"left_children":[1,3,5,7,9,11,13,15,17,19,21,23,25,27,29,-1,31,33,35,-1,37,39,-1,-1,41,43,45,47,49,-1,51,-1,-1,-1,-1,-1,-1,-1,-1,-1,-1,-1,-1,-1,-1,-1,-1,-1,-1,-1,-1,-1,-1],"loss_changes":[1.5487967E5,3.4682812E3,1.6337336E4,3.7872402E3,1.0202383E3,1.2357555E4,2.130371E0,1.4624688E3,4.79892E2,7.426953E1,3.4267188E2,4.849251E2,1.9137578E3,4.0089844E1,2.6233154E1,0E0,1.1338247E3,2.4065451E2,1.5845245E1,0E0,1.9100879E2,3.103213E2,0E0,0E0,1.1577951E2,6.89375E2,9.010449E1,8.86499E0,4.404159E1,0E0,5.186447E1,0E0,0E0,0E0,0E0,0E0,0E0,0E0,0E0,0E0,0E0,0E0,0E0,0E0,0E0,0E0,0E0,0E0,0E0,0E0,0E0,0E0,0E0],"parents":[2147483647,0,0,1,1,2,2,3,3,4,4,5,5,6,6,7,7,8,8,9,9,10,10,11,11,12,12,13,13,14,14,16,16,17,17,18,18,20,20,21,21,24,24,25,25,26,26,27,27,28,28,30,30],"right_children":[2,4,6,8,10,12,14,16,18,20,22,24,26,28,30,-1,32,34,36,-1,38,40,-1,-1,42,44,46,48,50,-1,52,-1,-1,-1,-1,-1,-1,-1,-1,-1,-1,-1,-1,-1,-1,-1,-1,-1,-1,-1,-1,-1,-1],"split_conditions":[3.169E1,5E0,2E1,3E1,8.5E0,8E0,5.63E1,5E0,9E0,6.467E1,1.7E1,1E0,1.8E1,5.516E1,6.992333E1,-9.061076E-1,9E0,8E0,3E0,-1.1838806E0,6.4616666E0,8E0,-1.2405833E0,-9.3541557E-1,7.23E0,5E0,9.37E0,2E0,4E0,-7.7931666E-1,7.068E1,3.9857486E-1,-5.8704984E-1,1.9820863E-1,1.1360848E0,-3.5466787E-1,-8.724642E-1,-3.5667327E-1,-1.1008085E0,-1.1548654E0,-7.460978E-1,-3.4607407E-1,2.1186452E-1,1.4462446E0,-6.7517084E-1,1.2049782E0,8.7243503E-1,-3.4216914E-1,-6.3343376E-1,-3.3963713E-1,2.7377224E-1,-9.57311E-3,-5.6447124E-1],"split_indices":[3,1,0,5,3,0,4,0,0,5,0,0,0,4,6,0,0,0,1,0,6,0,0,0,4,1,5,1,1,0,6,0,0,0,0,0,0,0,0,0,0,0,0,0,0,0,0,0,0,0,0,0,0],"split_type":[0,0,0,0,0,0,0,0,0,0,0,0,0,0,0,0,0,0,0,0,0,0,0,0,0,0,0,0,0,0,0,0,0,0,0,0,0,0,0,0,0,0,0,0,0,0,0,0,0,0,0,0,0],"sum_hessian":[1.708E3,9.51E2,7.57E2,4.57E2,4.94E2,7.04E2,5.3E1,4.05E2,5.2E1,2.82E2,2.12E2,9.8E1,6.06E2,2.1E1,3.2E1,2.48E2,1.57E2,4.6E1,6E0,2.65E2,1.7E1,1.88E2,2.4E1,3E0,9.5E1,5.04E2,1.02E2,1.8E1,3E0,1.9E1,1.3E1,1.2E1,1.45E2,4.4E1,2E0,4E0,2E0,7E0,1E1,2.5E1,1.63E2,3E0,9.2E1,5.03E2,1E0,1.9E1,8.3E1,6E0,1.2E1,2E0,1E0,2E0,1.1E1],"tree_param":{"num_deleted":"0","num_feature":"7","num_nodes":"53","size_leaf_vector":"1"}},{"base_weights":[-3.306905E-2,-7.6245975E0,9.638098E0,-5.7398887E0,-9.361239E0,1.0778054E1,-5.5997825E0,-6.7146554E0,1.7493603E0,-1.0500042E1,-7.818716E0,1.5486652E0,1.2242413E1,-1.4735838E0,-5.7327003E0,-8.158608E0,-4.4397554E0,7.790004E-1,1.368411E0,-1.0659376E0,-7.56211E0,-7.333257E0,-1.1214873E0,2.1614707E0,-1.9454359E0,1.2979847E1,8.529458E0,8.642645E-2,-3.0746403E-1,-6.455925E0,-4.485908E0,-8.203441E-1,-4.3300757E-1,4.2790243E-1,-5.299225E-1,1.7882831E-1,-5.820531E-1,-1.1876412E-1,-9.298555E-1,-1.0586568E0,-6.756453E-1,-3.2011858E-1,2.402585E-1,-6.5300494E-1,3.153371E-2,1.2631303E0,1.482506E0,8.18648E-1,1.4971575E0,-3.891847E-1,-7.067086E-1,-5.774318E-1,-3.3372223E-1],"categories":[],"categories_nodes":[],"categories_segments":[],"categories_sizes":[],"default_left":[0,0,0,0,0,0,0,0,0,0,0,0,0,0,0,0,0,0,0,0,0,0,0,0,0,0,0,0,0,0,0,0,0,0,0,0,0,0,0,0,0,0,0,0,0,0,0,0,0,0,0,0,0],"id":10,"left_children":[1,3,5,7,9,11,13,15,17,19,21,23,25,27,29,31,33,35,-1,-1,37,39,-1,41,43,45,47,-1,-1,49,51,-1,-1,-1,-1,-1,-1,-1,-1,-1,-1,-1,-1,-1,-1,-1,-1,-1,-1,-1,-1,-1,-1],"loss_changes":[1.2554646E5,3.0818633E3,1.3122992E4,3.3844707E3,7.909531E2,9.441625E3,2.0620117E1,1.3072812E3,6.147141E2,5.1867188E1,2.7222656E2,2.119018E2,1.5430859E3,1.3886383E1,1.702649E1,7.21875E0,1.2291326E3,3.501092E2,0E0,0E0,1.8819714E2,2.8688867E2,0E0,1.1501123E2,1.5753072E2,1.3559375E2,1.05015625E2,0E0,0E0,1.9507935E1,1.3289337E1,0E0,0E0,0E0,0E0,0E0,0E0,0E0,0E0,0E0,0E0,0E0,0E0,0E0,0E0,0E0,0E0,0E0,0E0,0E0,0E0,0E0,0E0],"parents":[2147483647,0,0,1,1,2,2,3,3,4,4,5,5,6,6,7,7,8,8,9,9,10,10,11,11,12,12,13,13,14,14,15,15,16,16,17,17,20,20,21,21,23,23,24,24,25,25,26,26,29,29,30,30],"right_children":[2,4,6,8,10,12,14,16,18,20,22,24,26,28,30,32,34,36,-1,-1,38,40,-1,42,44,46,48,-1,-1,50,52,-1,-1,-1,-1,-1,-1,-1,-1,-1,-1,-1,-1,-1,-1,-1,-1,-1,-1,-1,-1,-1,-1],"split_conditions":[3.331E1,5E0,2E1,3E1,8.5E0,8E0,4.475E1,5E0,3.229E1,6.467E1,1.7E1,2.4095E1,1.8E1,2.1E1,3E0,3.591E1,9E0,8E0,1.368411E0,-1.0659376E0,7.085E1,8E0,-1.1214873E0,7.23E0,4.475E1,7.909E1,7.829833E1,8.642645E-2,-3.0746403E-1,6.99E0,1.839E1,-8.203441E-1,-4.3300757E-1,4.2790243E-1,-5.299225E-1,1.7882831E-1,-5.820531E-1,-1.1876412E-1,-9.298555E-1,-1.0586568E0,-6.756453E-1,-3.2011858E-1,2.402585E-1,-6.5300494E-1,3.153371E-2,1.2631303E0,1.482506E0,8.18648E-1,1.4971575E0,-3.891847E-1,-7.067086E-1,-5.774318E-1,-3.3372223E-1],"split_indices":[3,1,0,5,3,0,3,0,4,5,0,6,0,0,1,6,0,0,0,0,5,0,0,4,3,4,6,0,0,5,5,0,0,0,0,0,0,0,0,0,0,0,0,0,0,0,0,0,0,0,0,0,0],"split_type":[0,0,0,0,0,0,0,0,0,0,0,0,0,0,0,0,0,0,0,0,0,0,0,0,0,0,0,0,0,0,0,0,0,0,0,0,0,0,0,0,0,0,0,0,0,0,0,0,0,0,0,0,0],"sum_hessian":[1.708E3,9.57E2,7.51E2,4.61E2,4.96E2,6.99E2,5.2E1,4.08E2,5.3E1,2.82E2,2.14E2,9.6E1,6.03E2,2E0,5E1,2.48E2,1.6E2,5E1,3E0,2.65E2,1.7E1,1.9E2,2.4E1,8.2E1,1.4E1,5.01E2,1.02E2,1E0,1E0,2.9E1,2.1E1,2.44E2,4E0,1.4E1,1.46E2,4.4E1,6E0,4E0,1.3E1,2.6E1,1.64E2,3E0,7.9E1,4E0,1E1,4.28E2,7.3E1,9.9E1,3E0,7E0,2.2E1,8E0,1.3E1],"tree_param":{"num_deleted":"0","num_feature":"7","num_nodes":"53","size_leaf_vector":"1"}},{"base_weights":[-3.1651035E-2,-6.917143E0,8.616133E0,-5.2803617E0,-8.417605E0,9.655108E0,-5.107837E0,-6.19586E0,7.7945423E-1,-9.470831E0,-7.0133424E0,1.1619681E0,1.102441E1,-5.276221E0,-2.8813982E0,-7.3477798E0,-4.2423673E0,2.1633575E0,-3.6087396E0,-9.613224E-1,-6.8641553E0,-6.5507407E0,-1.0008935E0,-8.0614275E-1,1.5341723E0,1.1680833E1,7.6989946E0,-4.1873975E0,-5.8827405E0,-3.6846563E-1,-8.499215E-1,-7.5111336E-1,-6.0509497E-1,3.2228467E-1,-4.914871E-1,1.1788704E-1,6.1890954E-1,-4.4424024E-1,4.0312693E-1,-2.0488262E-1,-9.101085E-1,-9.362389E-1,-6.047904E-1,2.2085261E-1,-2.302335E-3,1.1728121E0,-6.0763E-1,8.5176134E-1,5.787162E-1,-4.735836E-1,-6.7257546E-2,-1.3174705E-1,-5.9987336E-1,-1.9652013E-1,6.903191E-2],"categories":[],"categories_nodes":[],"categories_segments":[],"categories_sizes":[],"default_left":[0,0,0,0,0,0,0,0,0,0,0,0,0,0,0,0,0,0,0,0,0,0,0,0,0,0,0,0,0,0,0,0,0,0,0,0,0,0,0,0,0,0,0,0,0,0,0,0,0,0,0,0,0,0,0],"id":11,"left_children":[1,3,5,7,9,11,13,15,17,19,21,23,25,27,29,31,33,35,37,-1,39,41,-1,-1,43,45,47,49,51,-1,53,-1,-1,-1,-1,-1,-1,-1,-1,-1,-1,-1,-1,-1,-1,-1,-1,-1,-1,-1,-1,-1,-1,-1,-1],"loss_changes":[1.0182072E5,2.2935938E3,1.0857547E4,2.5457002E3,6.656836E2,8.1860938E3,5.041382E0,8.644336E2,3.7824994E2,3.7941406E1,2.3375879E2,3.5223337E2,1.2350781E3,7.72583E0,6.65913E0,7.298828E0,7.688965E2,1.789783E2,1.13446365E2,0E0,1.7524133E2,2.12E2,0E0,0E0,1.00860535E2,4.953203E2,1.1190918E2,3.7295715E1,7.45343E0,0E0,6.5100136E0,0E0,0E0,0E0,0E0,0E0,0E0,0E0,0E0,0E0,0E0,0E0,0E0,0E0,0E0,0E0,0E0,0E0,0E0,0E0,0E0,0E0,0E0,0E0,0E0],"parents":[2147483647,0,0,1,1,2,2,3,3,4,4,5,5,6,6,7,7,8,8,9,9,10,10,11,11,12,12,13,13,14,14,15,15,16,16,17,17,18,18,20,20,21,21,24,24,25,25,26,26,27,27,28,28,30,30],"right_children":[2,4,6,8,10,12,14,16,18,20,22,24,26,28,30,32,34,36,38,-1,40,42,-1,-1,44,46,48,50,52,-1,54,-1,-1,-1,-1,-1,-1,-1,-1,-1,-1,-1,-1,-1,-1,-1,-1,-1,-1,-1,-1,-1,-1,-1,-1],"split_conditions":[3.169E1,5E0,2E1,2.666E1,8.35E0,8E0,7.2325E1,5E0,9E0,6.467E1,1.7E1,1E0,1.8E1,5.63E1,4E0,1.863E1,9E0,1.632E1,2.643E1,-9.613224E-1,4.75E0,8E0,-1.0008935E0,-8.0614275E-1,4.031E1,5E0,7.572E1,5.516E1,1.08E0,-3.6846563E-1,5.514E1,-7.5111336E-1,-6.0509497E-1,3.2228467E-1,-4.914871E-1,1.1788704E-1,6.1890954E-1,-4.4424024E-1,4.0312693E-1,-2.0488262E-1,-9.101085E-1,-9.362389E-1,-6.047904E-1,2.2085261E-1,-2.302335E-3,1.1728121E0,-6.0763E-1,8.5176134E-1,5.787162E-1,-4.735836E-1,-6.7257546E-2,-1.3174705E-1,-5.9987336E-1,-1.9652013E-1,6.903191E-2],"split_indices":[3,1,0,5,3,0,6,0,0,5,0,0,0,4,1,3,0,6,3,0,4,0,0,0,4,1,4,4,5,0,3,0,0,0,0,0,0,0,0,0,0,0,0,0,0,0,0,0,0,0,0,0,0,0,0],"split_type":[0,0,0,0,0,0,0,0,0,0,0,0,0,0,0,0,0,0,0,0,0,0,0,0,0,0,0,0,0,0,0,0,0,0,0,0,0,0,0,0,0,0,0,0,0,0,0,0,0,0,0,0,0,0,0],"sum_hessian":[1.708E3,9.51E2,7.57E2,4.57E2,4.94E2,7.04E2,5.3E1,3.97E2,6E1,2.79E2,2.15E2,9.8E1,6.06E2,4.8E1,5E0,2.48E2,1.49E2,4.6E1,1.4E1,2.62E2,1.7E1,1.89E2,2.6E1,3E0,9.5E1,5.04E2,1.02E2,2E1,2.8E1,3E0,2E0,2.16E2,3.2E1,1.2E1,1.37E2,3.8E1,8E0,1.3E1,1E0,6E0,1.1E1,2.6E1,1.63E2,6.6E1,2.9E1,5.03E2,1E0,6.9E1,3.3E1,1.7E1,3E0,1E0,2.7E1,1E0,1E0],"tree_param":{"num_deleted":"0","num_feature":"7","num_nodes":"55","size_leaf_vector":"1"}},{"base_weights":[-3.188475E-2,-6.231151E0,7.754043E0,-4.7541366E0,-7.5851746E0,8.691594E0,-4.629802E0,-5.5801063E0,7.1291465E-1,-8.531162E0,-6.3237767E0,1.039837E0,9.925256E0,-4.9850717E0,-3.474471E0,-6.6184483E0,-3.8192585E0,1.9626997E0,-3.2506063E0,-9.086856E-1,-7.8486533E0,-5.9037776E0,-9.04511E-1,-7.45682E-1,1.3830327E0,1.0513867E1,6.9429836E0,-3.820488E0,-5.9004016E0,-3.2519245E-1,-4.1762128E-1,-6.6795146E-1,-4.2478403E-1,2.925353E-1,-4.426945E-1,1.4313589E-1,9.278577E-1,-4.029893E-1,3.8297054E-1,-8.6587286E-1,2.9502539E-2,-8.460825E-1,-5.4468024E-1,-3.8947105E-1,1.5367582E-1,1.0557635E0,-5.772485E-1,6.614687E-1,1.3414669E0,-4.3483075E-1,-6.221328E-2,-6.043439E-1,-1.5913497E-1,-1.6364498E-1,6.573766E-2],"categories":[],"categories_nodes":[],"categories_segments":[],"categories_sizes":[],"default_left":[0,0,0,0,0,0,0,0,0,0,0,0,0,0,0,0,0,0,0,0,0,0,0,0,0,0,0,0,0,0,0,0,0,0,0,0,0,0,0,0,0,0,0,0,0,0,0,0,0,0,0,0,0,0,0],"id":12,"left_children":[1,3,5,7,9,11,13,15,17,19,21,23,25,27,29,31,33,35,37,-1,39,41,-1,-1,43,45,47,49,51,53,-1,-1,-1,-1,-1,-1,-1,-1,-1,-1,-1,-1,-1,-1,-1,-1,-1,-1,-1,-1,-1,-1,-1,-1,-1],"loss_changes":[8.2536695E4,1.8678516E3,8.840988E3,2.0721318E3,5.3671875E2,6.6446562E3,4.843994E0,7.0241016E2,3.0854648E2,3.4873047E1,1.9347852E2,2.9899866E2,9.9252734E2,1.90307E1,3.4001617E1,7.673828E0,6.277412E2,1.6941852E2,9.8197235E1,0E0,8.799551E2,1.7593262E2,0E0,0E0,8.3872314E1,4.2091797E2,1.30104E2,3.1057861E1,2.7098389E0,6.2293677E0,0E0,0E0,0E0,0E0,0E0,0E0,0E0,0E0,0E0,0E0,0E0,0E0,0E0,0E0,0E0,0E0,0E0,0E0,0E0,0E0,0E0,0E0,0E0,0E0,0E0],"parents":[2147483647,0,0,1,1,2,2,3,3,4,4,5,5,6,6,7,7,8,8,9,9,10,10,11,11,12,12,13,13,14,14,15,15,16,16,17,17,18,18,20,20,21,21,24,24,25,25,26,26,27,27,28,28,29,29],"right_children":[2,4,6,8,10,12,14,16,18,20,22,24,26,28,30,32,34,36,38,-1,40,42,-1,-1,44,46,48,50,52,54,-1,-1,-1,-1,-1,-1,-1,-1,-1,-1,-1,-1,-1,-1,-1,-1,-1,-1,-1,-1,-1,-1,-1,-1,-1],"split_conditions":[3.169E1,5E0,2E1,2.666E1,8.35E0,8E0,7.0236664E1,5E0,9E0,1.074E1,1.7E1,1E0,1.8E1,5.63E1,7.068E1,3.5588333E1,9E0,8E0,2.643E1,-9.086856E-1,6E0,8E0,-9.04511E-1,-7.45682E-1,1.4921667E1,5E0,7.829833E1,5.516E1,2.666E1,5.085E1,-4.1762128E-1,-6.6795146E-1,-4.2478403E-1,2.925353E-1,-4.426945E-1,1.4313589E-1,9.278577E-1,-4.029893E-1,3.8297054E-1,-8.6587286E-1,2.9502539E-2,-8.460825E-1,-5.4468024E-1,-3.8947105E-1,1.5367582E-1,1.0557635E0,-5.772485E-1,6.614687E-1,1.3414669E0,-4.3483075E-1,-6.221328E-2,-6.043439E-1,-1.5913497E-1,-1.6364498E-1,6.573766E-2],"split_indices":[3,1,0,5,3,0,6,0,0,5,0,0,0,4,6,6,0,0,3,0,1,0,0,0,6,1,6,4,5,4,0,0,0,0,0,0,0,0,0,0,0,0,0,0,0,0,0,0,0,0,0,0,0,0,0],"split_type":[0,0,0,0,0,0,0,0,0,0,0,0,0,0,0,0,0,0,0,0,0,0,0,0,0,0,0,0,0,0,0,0,0,0,0,0,0,0,0,0,0,0,0,0,0,0,0,0,0,0,0,0,0,0,0],"sum_hessian":[1.708E3,9.51E2,7.57E2,4.57E2,4.94E2,7.04E2,5.3E1,3.97E2,6E1,2.79E2,2.15E2,9.8E1,6.06E2,3.8E1,1.5E1,2.48E2,1.49E2,4.6E1,1.4E1,1.47E2,1.32E2,1.89E2,2.6E1,3E0,9.5E1,5.04E2,1.02E2,1.9E1,1.9E1,3E0,1.2E1,2.4E2,8E0,1.2E1,1.37E2,4.4E1,2E0,1.3E1,1E0,1.2E2,1.2E1,2.6E1,1.63E2,2E0,9.3E1,5.03E2,1E0,9.9E1,3E0,1.6E1,3E0,1.8E1,1E0,1E0,2E0],"tree_param":{"num_deleted":"0","num_feature":"7","num_nodes":"55","size_leaf_vector":"1"}},{"base_weights":[-3.1334233E-2,-5.6124816E0,6.978275E0,-4.279142E0,-6.8348193E0,7.824563E0,-4.199712E0,-5.0252185E0,6.588527E-1,-7.684279E0,-5.702026E0,9.259401E-1,8.936818E0,-4.322666E0,-2.1302269E0,-5.960992E0,-3.4383342E0,1.7892176E0,-2.926881E0,-7.8099E0,-5.4219146E0,-7.66386E-1,-5.21261E0,-6.8975586E-1,1.242274E0,9.4634285E0,6.2681313E0,-1.9160471E0,-4.435513E0,-3.095091E-1,8.646145E-2,-6.099728E-1,-4.8680612E-1,2.655322E-1,-3.9874586E-1,1.2914048E-1,8.6600065E-1,-3.6556897E-1,3.6382198E-1,-8.3097804E-1,-7.318444E-1,-1.4424205E-1,-7.82319E-1,-7.755378E-1,-4.8919654E-1,2.1495683E-1,2.5063602E-2,9.5039666E-1,-5.4838616E-1,5.9872353E-1,1.3635592E0,1.2752591E-1,-3.4049022E-1,-4.9591538E-1,-3.402824E-1],"categories":[],"categories_nodes":[],"categories_segments":[],"categories_sizes":[],"default_left":[0,0,0,0,0,0,0,0,0,0,0,0,0,0,0,0,0,0,0,0,0,0,0,0,0,0,0,0,0,0,0,0,0,0,0,0,0,0,0,0,0,0,0,0,0,0,0,0,0,0,0,0,0,0,0],"id":13,"left_children":[1,3,5,7,9,11,13,15,17,19,21,23,25,27,29,31,33,35,37,39,41,-1,43,-1,45,47,49,51,53,-1,-1,-1,-1,-1,-1,-1,-1,-1,-1,-1,-1,-1,-1,-1,-1,-1,-1,-1,-1,-1,-1,-1,-1,-1,-1],"loss_changes":[6.6898086E4,1.5223164E3,7.2033867E3,1.6906396E3,4.325039E2,5.401211E3,4.5321655E0,5.7051953E2,2.5248128E2,3.723047E1,1.6744482E2,2.535776E2,7.937344E2,5.0803223E0,1.7124136E1,8.061523E0,5.1251465E2,1.495737E2,8.5070724E1,3.796875E0,1.6072119E2,0E0,1.05558105E2,0E0,8.5833145E1,3.5811328E2,1.3151807E2,2.33477E1,8.540527E0,0E0,0E0,0E0,0E0,0E0,0E0,0E0,0E0,0E0,0E0,0E0,0E0,0E0,0E0,0E0,0E0,0E0,0E0,0E0,0E0,0E0,0E0,0E0,0E0,0E0,0E0],"parents":[2147483647,0,0,1,1,2,2,3,3,4,4,5,5,6,6,7,7,8,8,9,9,10,10,11,11,12,12,13,13,14,14,15,15,16,16,17,17,18,18,19,19,20,20,22,22,24,24,25,25,26,26,27,27,28,28],"right_children":[2,4,6,8,10,12,14,16,18,20,22,24,26,28,30,32,34,36,38,40,42,-1,44,-1,46,48,50,52,54,-1,-1,-1,-1,-1,-1,-1,-1,-1,-1,-1,-1,-1,-1,-1,-1,-1,-1,-1,-1,-1,-1,-1,-1,-1,-1],"split_conditions":[3.169E1,5E0,2E1,2.666E1,8.35E0,8E0,7.332667E1,5E0,9E0,6.467E1,1.206E1,1E0,1.8E1,4.475E1,4E0,1.863E1,9E0,8E0,2.643E1,7E0,6.4616666E0,-7.66386E-1,8E0,-6.8975586E-1,3.229E1,5E0,7.839E1,2.1E1,3E0,-3.095091E-1,8.646145E-2,-6.099728E-1,-4.8680612E-1,2.655322E-1,-3.9874586E-1,1.2914048E-1,8.6600065E-1,-3.6556897E-1,3.6382198E-1,-8.3097804E-1,-7.318444E-1,-1.4424205E-1,-7.82319E-1,-7.755378E-1,-4.8919654E-1,2.1495683E-1,2.5063602E-2,9.5039666E-1,-5.4838616E-1,5.9872353E-1,1.3635592E0,1.2752591E-1,-3.4049022E-1,-4.9591538E-1,-3.402824E-1],"split_indices":[3,1,0,5,3,0,6,0,0,5,5,0,0,3,1,3,0,0,3,0,6,0,0,0,4,1,5,0,1,0,0,0,0,0,0,0,0,0,0,0,0,0,0,0,0,0,0,0,0,0,0,0,0,0,0],"split_type":[0,0,0,0,0,0,0,0,0,0,0,0,0,0,0,0,0,0,0,0,0,0,0,0,0,0,0,0,0,0,0,0,0,0,0,0,0,0,0,0,0,0,0,0,0,0,0,0,0,0,0,0,0,0,0],"sum_hessian":[1.708E3,9.51E2,7.57E2,4.57E2,4.94E2,7.04E2,5.3E1,3.97E2,6E1,2.79E2,2.15E2,9.8E1,6.06E2,4.9E1,4E0,2.48E2,1.49E2,4.6E1,1.4E1,2.62E2,1.7E1,4E1,1.75E2,3E0,9.5E1,5.04E2,1.02E2,3E0,4.6E1,3E0,1E0,2.16E2,3.2E1,1.2E1,1.37E2,4.4E1,2E0,1.3E1,1E0,1.22E2,1.4E2,7E0,1E1,1.7E1,1.58E2,4.9E1,4.6E1,5.03E2,1E0,1E2,2E0,1E0,2E0,2.8E1,1.8E1],"tree_param":{"num_deleted":"0","num_feature":"7","num_nodes":"55","size_leaf_vector":"1"}},{"base_weights":[-3.0608803E-2,-5.0562305E0,6.2812943E0,-3.8517444E0,-6.1604695E0,7.0448217E0,-3.8033004E0,-4.5257874E0,6.0925347E-1,-5.5886254E0,-7.5565284E-1,8.288031E-1,8.04703E0,-4.115511E0,-2.8045816E0,-5.369298E0,-3.0953884E0,-3.7043768E-1,4.2550697E0,-7.379105E0,-3.9588957E0,-6.3802415E-1,1.1205466E0,8.51788E0,5.660369E0,-2.4400728E0,-4.6091075E0,-2.3029804E-2,-3.4447067E0,-5.6854457E-1,-4.8738477E-1,2.410214E-1,-3.5916016E-1,4.6409035E-1,-1.1776226E-1,-4.1810542E-1,5.3065014E-1,-6.273207E-1,-7.7446634E-1,-5.495223E-2,-4.478434E-1,-3.4032112E-1,1.303068E-1,8.5554546E-1,-5.209669E-1,5.351799E-1,1.1959525E0,-3.6980817E-1,2.1473114E-1,-2.157378E-1,-5.0299937E-1,-1.3844863E-1,8.9228444E-2,-4.663303E-1,-2.3849638E-1],"categories":[],"categories_nodes":[],"categories_segments":[],"categories_sizes":[],"default_left":[0,0,0,0,0,0,0,0,0,0,0,0,0,0,0,0,0,0,0,0,0,0,0,0,0,0,0,0,0,0,0,0,0,0,0,0,0,0,0,0,0,0,0,0,0,0,0,0,0,0,0,0,0,0,0],"id":14,"left_children":[1,3,5,7,9,11,13,15,17,19,-1,21,23,25,27,29,31,33,35,37,39,-1,41,43,45,47,49,51,53,-1,-1,-1,-1,-1,-1,-1,-1,-1,-1,-1,-1,-1,-1,-1,-1,-1,-1,-1,-1,-1,-1,-1,-1,-1,-1],"loss_changes":[5.4243355E4,1.2424688E3,5.863287E3,1.3799199E3,3.529414E2,4.3853047E3,5.29541E0,4.6358936E2,2.1945445E2,1.00667676E3,0E0,2.1536536E2,6.3391016E2,2.1006104E1,2.840934E1,1.1291992E1,4.1844946E2,2.036741E2,1.3749689E2,1.9333008E1,3.305437E2,0E0,8.370011E1,3.0504688E2,1.3619922E2,7.142161E1,1.9073486E1,6.219997E0,5.6663666E0,0E0,0E0,0E0,0E0,0E0,0E0,0E0,0E0,0E0,0E0,0E0,0E0,0E0,0E0,0E0,0E0,0E0,0E0,0E0,0E0,0E0,0E0,0E0,0E0,0E0,0E0],"parents":[2147483647,0,0,1,1,2,2,3,3,4,4,5,5,6,6,7,7,8,8,9,9,11,11,12,12,13,13,14,14,15,15,16,16,17,17,18,18,19,19,20,20,22,22,23,23,24,24,25,25,26,26,27,27,28,28],"right_children":[2,4,6,8,10,12,14,16,18,20,-1,22,24,26,28,30,32,34,36,38,40,-1,42,44,46,48,50,52,54,-1,-1,-1,-1,-1,-1,-1,-1,-1,-1,-1,-1,-1,-1,-1,-1,-1,-1,-1,-1,-1,-1,-1,-1,-1,-1],"split_conditions":[3.169E1,5E0,2E1,2.666E1,1.7E1,8E0,7.0236664E1,5E0,4.598E1,8E0,-7.5565284E-1,1E0,1.8E1,5.18E1,7.068E1,1.555E1,9E0,9.09E0,6.51E0,3.62E0,6.8116665E0,-6.3802415E-1,7.23E0,5E0,7.829833E1,6.765E1,1E0,5.085E1,5.622E1,-5.6854457E-1,-4.8738477E-1,2.410214E-1,-3.5916016E-1,4.6409035E-1,-1.1776226E-1,-4.1810542E-1,5.3065014E-1,-6.273207E-1,-7.7446634E-1,-5.495223E-2,-4.478434E-1,-3.4032112E-1,1.303068E-1,8.5554546E-1,-5.209669E-1,5.351799E-1,1.1959525E0,-3.6980817E-1,2.1473114E-1,-2.157378E-1,-5.0299937E-1,-1.3844863E-1,8.9228444E-2,-4.663303E-1,-2.3849638E-1],"split_indices":[3,1,0,5,0,0,6,0,5,0,0,0,0,3,6,4,0,3,3,4,6,0,4,1,6,6,1,4,3,0,0,0,0,0,0,0,0,0,0,0,0,0,0,0,0,0,0,0,0,0,0,0,0,0,0],"split_type":[0,0,0,0,0,0,0,0,0,0,0,0,0,0,0,0,0,0,0,0,0,0,0,0,0,0,0,0,0,0,0,0,0,0,0,0,0,0,0,0,0,0,0,0,0,0,0,0,0,0,0,0,0,0,0],"sum_hessian":[1.708E3,9.51E2,7.57E2,4.57E2,4.94E2,7.04E2,5.3E1,3.97E2,6E1,3.54E2,1.4E2,9.8E1,6.06E2,3.8E1,1.5E1,2.48E2,1.49E2,4.8E1,1.2E1,1.67E2,1.87E2,3E0,9.5E1,5.04E2,1.02E2,1E1,2.8E1,3E0,1.2E1,1.45E2,1.03E2,1.2E1,1.37E2,6E0,4.2E1,1E0,1.1E1,4.6E1,1.21E2,2.5E1,1.62E2,3E0,9.2E1,5.03E2,1E0,9.9E1,3E0,8E0,2E0,5E0,2.3E1,1E0,2E0,4E0,8E0],"tree_param":{"num_deleted":"0","num_feature":"7","num_nodes":"55","size_leaf_vector":"1"}},{"base_weights":[-2.976289E-2,-4.554153E0,5.652624E0,-3.4681318E0,-5.549797E0,6.3420672E0,-3.4531155E0,-4.076159E0,5.5585074E-1,-6.536144E0,-4.8923635E0,7.373572E-1,7.2457314E0,-2.7139056E0,-3.8412824E0,-4.836609E0,-2.7866375E0,1.5270826E0,-2.5243993E0,-6.904381E-1,-5.7957807E0,-5.609287E0,-2.5763674E0,-5.901724E-1,1.0063047E0,7.6667557E0,5.11114E0,-3.155596E0,6.259966E-2,-5.025237E0,-2.9254398E0,-2.1617341E-1,-4.8714566E-1,2.187734E-1,-3.2350448E-1,7.135549E-2,4.8826933E-1,-3.2068834E-1,3.5151893E-1,-2.2747278E-1,-5.864873E-1,-6.66075E-1,-4.527596E-1,4.4808936E-1,-3.1611794E-1,1.647134E-1,-2.1071114E-2,7.701607E-1,-4.949185E-1,7.69514E-1,4.435055E-1,-1.5573195E-1,-3.7734684E-1,-3.3049127E-1,2.2867413E-1,-5.275286E-1,-1.0123243E-1,-3.823538E-1,-1.555178E-1],"categories":[],"categories_nodes":[],"categories_segments":[],"categories_sizes":[],"default_left":[0,0,0,0,0,0,0,0,0,0,0,0,0,0,0,0,0,0,0,0,0,0,0,0,0,0,0,0,0,0,0,0,0,0,0,0,0,0,0,0,0,0,0,0,0,0,0,0,0,0,0,0,0,0,0,0,0,0,0],"id":15,"left_children":[1,3,5,7,9,11,13,15,17,19,21,23,25,27,29,31,33,35,37,-1,39,41,43,-1,45,47,49,51,53,55,57,-1,-1,-1,-1,-1,-1,-1,-1,-1,-1,-1,-1,-1,-1,-1,-1,-1,-1,-1,-1,-1,-1,-1,-1,-1,-1,-1,-1],"loss_changes":[4.3963E4,1.0101406E3,4.780541E3,1.1228501E3,2.890088E2,3.5653242E3,5.069641E0,3.7680713E2,1.8634482E2,1.3145508E1,4.8532617E2,1.8270984E2,5.0633203E2,2.7177368E1,2.108139E1,1.2679199E1,3.4165906E2,1.24820404E2,7.310163E1,0E0,3.9318848E0,2.3029834E2,3.154483E2,0E0,7.52174E1,2.601582E2,1.4581299E2,1.2886581E1,3.7516777E1,7.7042236E0,1.9896942E1,0E0,0E0,0E0,0E0,0E0,0E0,0E0,0E0,0E0,0E0,0E0,0E0,0E0,0E0,0E0,0E0,0E0,0E0,0E0,0E0,0E0,0E0,0E0,0E0,0E0,0E0,0E0,0E0],"parents":[2147483647,0,0,1,1,2,2,3,3,4,4,5,5,6,6,7,7,8,8,9,9,10,10,11,11,12,12,13,13,14,14,15,15,16,16,17,17,18,18,20,20,21,21,22,22,24,24,25,25,26,26,27,27,28,28,29,29,30,30],"right_children":[2,4,6,8,10,12,14,16,18,20,22,24,26,28,30,32,34,36,38,-1,40,42,44,-1,46,48,50,52,54,56,58,-1,-1,-1,-1,-1,-1,-1,-1,-1,-1,-1,-1,-1,-1,-1,-1,-1,-1,-1,-1,-1,-1,-1,-1,-1,-1,-1,-1],"split_conditions":[3.169E1,5E0,2E1,2.666E1,1.206E1,8E0,5.63E1,5E0,9E0,7.23E0,6E0,1E0,1.8E1,5.516E1,6.837E1,5.3E-1,9E0,1.632E1,2.643E1,-6.904381E-1,5.3E-1,5.63E1,5.28E0,-5.901724E-1,2.1441668E1,5E0,6.77E1,2E0,2E0,2.666E1,1.839E1,-2.1617341E-1,-4.8714566E-1,2.187734E-1,-3.2350448E-1,7.135549E-2,4.8826933E-1,-3.2068834E-1,3.5151893E-1,-2.2747278E-1,-5.864873E-1,-6.66075E-1,-4.527596E-1,4.4808936E-1,-3.1611794E-1,1.647134E-1,-2.1071114E-2,7.701607E-1,-4.949185E-1,7.69514E-1,4.435055E-1,-1.5573195E-1,-3.7734684E-1,-3.3049127E-1,2.2867413E-1,-5.275286E-1,-1.0123243E-1,-3.823538E-1,-1.555178E-1],"split_indices":[3,1,0,5,5,0,4,0,0,5,1,0,0,4,6,5,0,6,3,0,3,5,3,0,6,1,4,1,1,5,5,0,0,0,0,0,0,0,0,0,0,0,0,0,0,0,0,0,0,0,0,0,0,0,0,0,0,0,0],"split_type":[0,0,0,0,0,0,0,0,0,0,0,0,0,0,0,0,0,0,0,0,0,0,0,0,0,0,0,0,0,0,0,0,0,0,0,0,0,0,0,0,0,0,0,0,0,0,0,0,0,0,0,0,0,0,0,0,0,0,0],"sum_hessian":[1.708E3,9.51E2,7.57E2,4.57E2,4.94E2,7.04E2,5.3E1,3.97E2,6E1,1.94E2,3E2,9.8E1,6.06E2,2.1E1,3.2E1,2.48E2,1.49E2,4.6E1,1.4E1,1.24E2,7E1,2.28E2,7.2E1,3E0,9.5E1,5.04E2,1.02E2,1.8E1,3E0,1.2E1,2E1,4E0,2.44E2,1.2E1,1.37E2,3.8E1,8E0,1.3E1,1E0,2E0,6.8E1,1.13E2,1.15E2,5E0,6.7E1,6.2E1,3.3E1,5.03E2,1E0,1.9E1,8.3E1,6E0,1.2E1,1E0,2E0,1.1E1,1E0,1.1E1,9E0],"tree_param":{"num_deleted":"0","num_feature":"7","num_nodes":"59","size_leaf_vector":"1"}},{"base_weights":[-2.8817141E-2,-4.101583E0,5.086357E0,-3.1217928E0,-4.9998503E0,5.7093353E0,-3.1411657E0,-3.9870927E0,-7.58912E-1,-4.5215898E0,-6.168522E0,6.591106E-1,6.5236073E0,-3.5536232E0,-2.4775262E0,-4.3592715E0,-2.9566717E0,1.8044802E0,-1.0584934E0,-6.0032268E0,-3.1735225E0,-4.97943E0,-6.381866E0,-5.459095E-1,9.071701E-1,6.9006214E0,4.611804E0,1.1819964E-1,-3.750877E0,-3.1523137E0,-1.3934764E0,-4.4827697E-1,-3.4337905E-1,-1.3822399E-1,-4.089136E-1,1.05535045E-1,-2.5207886E-1,-5.017802E-1,-6.333651E-1,-2.5582397E-2,-3.6194527E-1,-5.1594234E-1,-2.3980046E-2,-5.8074397E-1,-7.129745E-1,-9.327643E-2,1.3149126E-1,6.932971E-1,-4.7017255E-1,4.3444902E-1,1.2074097E0,-5.216884E-1,-2.8741655E-1,-1.7286144E-1,-4.3290684E-1,-3.208222E-1,-3.1191899E-2],"categories":[],"categories_nodes":[],"categories_segments":[],"categories_sizes":[],"default_left":[0,0,0,0,0,0,0,0,0,0,0,0,0,0,0,0,0,0,0,0,0,0,0,0,0,0,0,0,0,0,0,0,0,0,0,0,0,0,0,0,0,0,0,0,0,0,0,0,0,0,0,0,0,0,0,0,0],"id":16,"left_children":[1,3,5,7,9,11,13,15,17,19,21,23,25,27,29,31,33,-1,35,37,39,41,43,-1,45,47,49,-1,51,53,55,-1,-1,-1,-1,-1,-1,-1,-1,-1,-1,-1,-1,-1,-1,-1,-1,-1,-1,-1,-1,-1,-1,-1,-1,-1,-1],"loss_changes":[3.56243E4,8.222578E2,3.9031172E3,9.3340137E2,2.487793E2,2.8948398E3,5.9768677E0,1.15583496E2,7.176225E2,6.9000635E2,3.9921875E0,1.5520253E2,4.056875E2,3.3391174E1,1.3163406E1,1.2495117E1,1.5838281E2,0E0,3.8286115E2,2.2920898E1,2.4367908E2,2.094342E1,8.427734E0,0E0,7.324755E1,2.2213672E2,1.5300586E2,0E0,2.3563782E1,1.5971542E1,2.0589558E1,0E0,0E0,0E0,0E0,0E0,0E0,0E0,0E0,0E0,0E0,0E0,0E0,0E0,0E0,0E0,0E0,0E0,0E0,0E0,0E0,0E0,0E0,0E0,0E0,0E0,0E0],"parents":[2147483647,0,0,1,1,2,2,3,3,4,4,5,5,6,6,7,7,8,8,9,9,10,10,11,11,12,12,13,13,14,14,15,15,16,16,18,18,19,19,20,20,21,21,22,22,24,24,25,25,26,26,28,28,29,29,30,30],"right_children":[2,4,6,8,10,12,14,16,18,20,22,24,26,28,30,32,34,-1,36,38,40,42,44,-1,46,48,50,-1,52,54,56,-1,-1,-1,-1,-1,-1,-1,-1,-1,-1,-1,-1,-1,-1,-1,-1,-1,-1,-1,-1,-1,-1,-1,-1,-1,-1],"split_conditions":[3.169E1,5E0,2E1,1.964E1,1.7E1,8E0,3E0,5E0,1E0,8E0,6.4616666E0,1E0,1.8E1,4.475E1,6.903167E1,1.863E1,1.964E1,1.8044802E0,3.009E1,3.62E0,6.8116665E0,7.62E0,1.896E1,-5.459095E-1,1.6695E1,5E0,7.839E1,1.1819964E-1,5.622E1,6.565833E1,1.839E1,-4.4827697E-1,-3.4337905E-1,-1.3822399E-1,-4.089136E-1,1.05535045E-1,-2.5207886E-1,-5.017802E-1,-6.333651E-1,-2.5582397E-2,-3.6194527E-1,-5.1594234E-1,-2.3980046E-2,-5.8074397E-1,-7.129745E-1,-9.327643E-2,1.3149126E-1,6.932971E-1,-4.7017255E-1,4.3444902E-1,1.2074097E0,-5.216884E-1,-2.8741655E-1,-1.7286144E-1,-4.3290684E-1,-3.208222E-1,-3.1191899E-2],"split_indices":[3,1,0,5,0,0,1,0,1,0,6,0,0,3,6,3,4,0,6,4,6,4,5,0,6,1,5,0,3,6,5,0,0,0,0,0,0,0,0,0,0,0,0,0,0,0,0,0,0,0,0,0,0,0,0,0,0],"split_type":[0,0,0,0,0,0,0,0,0,0,0,0,0,0,0,0,0,0,0,0,0,0,0,0,0,0,0,0,0,0,0,0,0,0,0,0,0,0,0,0,0,0,0,0,0,0,0,0,0,0,0,0,0,0,0,0,0],"sum_hessian":[1.708E3,9.51E2,7.57E2,4.57E2,4.94E2,7.04E2,5.3E1,3.34E2,1.23E2,3.54E2,1.4E2,9.8E1,6.06E2,3E1,2.3E1,2.43E2,9.1E1,1E0,1.22E2,1.67E2,1.87E2,2.5E1,1.15E2,3E0,9.5E1,5.04E2,1.02E2,1E0,2.9E1,1.3E1,1E1,2.11E2,3.2E1,3.9E1,5.2E1,5E1,7.2E1,4.6E1,1.21E2,2.5E1,1.62E2,2.4E1,1E0,7E1,4.5E1,1.7E1,7.8E1,5.03E2,1E0,1E2,2E0,9E0,2E1,7E0,6E0,3E0,7E0],"tree_param":{"num_deleted":"0","num_feature":"7","num_nodes":"57","size_leaf_vector":"1"}},{"base_weights":[-2.788338E-2,-3.694615E0,4.577336E0,-5.0001526E0,-3.1404326E0,5.140326E0,-2.8575804E0,-4.635063E0,-5.5539436E0,-3.7942004E0,-2.0590146E0,5.880704E-1,5.874318E0,-3.4069538E-2,-2.8986404E0,-5.233629E0,5.8643836E-1,-4.929991E0,-6.438112E0,-2.59554E0,-4.0580277E0,1.7142562E0,-2.2021017E0,1.0966364E0,-2.118656E0,6.2109995E0,4.1665645E0,-3.3051867E0,-2.269681E0,-5.2753747E-1,6.6017725E-2,2.4232972E-1,-2.908648E-1,-6.514565E-1,-4.571789E-1,-3.074669E-1,-6.7186284E-1,-2.9676458E-1,2.3643354E-1,-5.698325E-1,-3.8631478E-1,6.209905E-2,-2.8129157E-1,8.662711E-3,2.2054811E-1,-4.6822628E-1,3.9551206E-2,5.8623576E-1,7.75349E-1,6.7190105E-1,3.5092375E-1,1.1228962E-1,-3.4965998E-1,-2.8803515E-1,-1.2861295E-1],"categories":[],"categories_nodes":[],"categories_segments":[],"categories_sizes":[],"default_left":[0,0,0,0,0,0,0,0,0,0,0,0,0,0,0,0,0,0,0,0,0,0,0,0,0,0,0,0,0,0,0,0,0,0,0,0,0,0,0,0,0,0,0,0,0,0,0,0,0,0,0,0,0,0,0],"id":17,"left_children":[1,3,5,7,9,11,13,15,17,19,21,23,25,-1,27,29,31,33,35,37,39,-1,41,43,45,47,49,51,53,-1,-1,-1,-1,-1,-1,-1,-1,-1,-1,-1,-1,-1,-1,-1,-1,-1,-1,-1,-1,-1,-1,-1,-1,-1,-1],"loss_changes":[2.8875262E4,6.730742E2,3.1875137E3,3.1273438E1,4.6658203E2,2.3521758E3,4.5930176E0,5.5314185E2,2.729004E1,1.2133887E2,7.383618E2,1.3860178E2,3.2312695E2,0E0,6.050415E0,4.2356445E1,1.2902814E2,8.245728E0,1.8025879E1,1.5097314E2,8.667139E1,0E0,4.3974048E2,9.388418E1,1.04977295E2,2.26125E2,1.4923401E2,2.9354126E1,1.071051E1,0E0,0E0,0E0,0E0,0E0,0E0,0E0,0E0,0E0,0E0,0E0,0E0,0E0,0E0,0E0,0E0,0E0,0E0,0E0,0E0,0E0,0E0,0E0,0E0,0E0,0E0],"parents":[2147483647,0,0,1,1,2,2,3,3,4,4,5,5,6,6,7,7,8,8,9,9,10,10,11,11,12,12,14,14,15,15,16,16,17,17,18,18,19,19,20,20,22,22,23,23,24,24,25,25,26,26,27,27,28,28],"right_children":[2,4,6,8,10,12,14,16,18,20,22,24,26,-1,28,30,32,34,36,38,40,-1,42,44,46,48,50,52,54,-1,-1,-1,-1,-1,-1,-1,-1,-1,-1,-1,-1,-1,-1,-1,-1,-1,-1,-1,-1,-1,-1,-1,-1,-1,-1],"split_conditions":[3.169E1,7.4E0,2E1,1.4E1,1.927E1,8E0,1.08E0,8E0,1.896E1,1E0,1E0,2.4095E1,1.8E1,-3.4069538E-2,3E0,5.392E1,6.96E1,2.24E0,5.31E0,2.574E1,6.33E0,1.7142562E0,6E0,4.2E1,4.207E1,7.829E1,9.37E0,4.475E1,6.903167E1,-5.2753747E-1,6.6017725E-2,2.4232972E-1,-2.908648E-1,-6.514565E-1,-4.571789E-1,-3.074669E-1,-6.7186284E-1,-2.9676458E-1,2.3643354E-1,-5.698325E-1,-3.8631478E-1,6.209905E-2,-2.8129157E-1,8.662711E-3,2.2054811E-1,-4.6822628E-1,3.9551206E-2,5.8623576E-1,7.75349E-1,6.7190105E-1,3.5092375E-1,1.1228962E-1,-3.4965998E-1,-2.8803515E-1,-1.2861295E-1],"split_indices":[3,3,0,0,5,0,5,0,5,1,1,6,0,0,1,5,5,4,6,3,5,0,0,3,4,4,5,3,6,0,0,0,0,0,0,0,0,0,0,0,0,0,0,0,0,0,0,0,0,0,0,0,0,0,0],"split_type":[0,0,0,0,0,0,0,0,0,0,0,0,0,0,0,0,0,0,0,0,0,0,0,0,0,0,0,0,0,0,0,0,0,0,0,0,0,0,0,0,0,0,0,0,0,0,0,0,0,0,0,0,0,0,0],"sum_hessian":[1.708E3,9.51E2,7.57E2,2.81E2,6.7E2,7.04E2,5.3E1,1.75E2,1.06E2,4.16E2,2.54E2,9.8E1,6.06E2,1E0,5.2E1,1.57E2,1.8E1,6.6E1,4E1,7.7E1,3.39E2,1E0,2.53E2,8.3E1,1.5E1,5.04E2,1.02E2,2.9E1,2.3E1,1.56E2,1E0,1.2E1,6E0,9E0,5.7E1,4E0,3.6E1,7.2E1,5E0,3.3E1,3.06E2,4.5E1,2.08E2,4.4E1,3.9E1,7E0,8E0,4.15E2,8.9E1,1.9E1,8.3E1,1E0,2.8E1,1.3E1,1E1],"tree_param":{"num_deleted":"0","num_feature":"7","num_nodes":"55","size_leaf_vector":"1"}},{"base_weights":[-2.545944E-2,-3.3039958E0,4.1512203E0,-2.4318845E0,-4.1080427E0,4.6532226E0,-2.5573192E0,-3.2229216E0,-3.4259352E-1,-4.8468266E0,-3.5984294E0,7.0078385E-1,5.2802644E0,-1.8177605E-1,-2.6469135E0,-3.3325942E0,-6.610682E-1,1.6287154E0,-7.358209E-1,-5.1345634E-1,-4.3098006E0,-4.1806765E0,-1.6779954E0,1.3050411E0,-9.1414386E-1,5.581706E0,3.759837E0,1.0667515E-1,-1.3394156E-1,-3.0752738E0,-1.9424716E0,-2.6600093E-1,-3.5712904E-1,-4.0118644E-1,9.22118E-2,-1.0629965E-1,9.508783E-1,-2.5270414E-1,-4.5115587E-1,-4.908137E-1,-3.448572E-1,6.42749E-1,-2.0060892E-1,1.03866234E-1,6.9967407E-1,4.489916E-1,-1.2946814E-1,5.3024906E-1,7.229118E-1,3.466996E-1,1.0140902E0,-4.4326693E-1,-2.2824533E-1,-2.95885E-1,-1.1503376E-1],"categories":[],"categories_nodes":[],"categories_segments":[],"categories_sizes":[],"default_left":[0,0,0,0,0,0,0,0,0,0,0,0,0,0,0,0,0,0,0,0,0,0,0,0,0,0,0,0,0,0,0,0,0,0,0,0,0,0,0,0,0,0,0,0,0,0,0,0,0,0,0,0,0,0,0],"id":18,"left_children":[1,3,5,7,9,11,13,15,17,19,21,23,25,27,29,31,33,-1,35,-1,37,39,41,43,45,47,49,-1,-1,51,53,-1,-1,-1,-1,-1,-1,-1,-1,-1,-1,-1,-1,-1,-1,-1,-1,-1,-1,-1,-1,-1,-1,-1,-1],"loss_changes":[2.341573E4,6.6177637E2,2.5444092E3,7.6244604E2,1.6967676E2,1.7311426E3,1.0799133E1,9.192041E1,8.490112E2,8.775391E0,3.2619922E2,9.5848694E1,2.5583789E2,5.764858E0,9.415863E0,4.2034668E1,8.3273415E1,0E0,4.3243262E2,0E0,1.5935303E1,1.04501465E2,2.0170859E2,1.00379265E2,6.1337093E1,1.925791E2,1.5731116E2,0E0,0E0,2.2167786E1,1.4308693E1,0E0,0E0,0E0,0E0,0E0,0E0,0E0,0E0,0E0,0E0,0E0,0E0,0E0,0E0,0E0,0E0,0E0,0E0,0E0,0E0,0E0,0E0,0E0,0E0],"parents":[2147483647,0,0,1,1,2,2,3,3,4,4,5,5,6,6,7,7,8,8,9,9,10,10,11,11,12,12,13,13,14,14,15,15,16,16,18,18,20,20,21,21,22,22,23,23,24,24,25,25,26,26,29,29,30,30],"right_children":[2,4,6,8,10,12,14,16,18,20,22,24,26,28,30,32,34,-1,36,-1,38,40,42,44,46,48,50,-1,-1,52,54,-1,-1,-1,-1,-1,-1,-1,-1,-1,-1,-1,-1,-1,-1,-1,-1,-1,-1,-1,-1,-1,-1,-1,-1],"split_conditions":[3.331E1,5E0,2E1,1.964E1,1.223E1,8E0,4.475E1,2.589E1,1E0,7.23E0,6E0,2.2466667E1,1.8E1,2.1E1,3E0,1E0,1.678E1,1.6287154E0,5.794E1,-5.1345634E-1,7.62E0,5.63E1,3.99E0,4.684E1,3.59E0,7.923E1,7.829833E1,1.0667515E-1,-1.3394156E-1,5.622E1,1.839E1,-2.6600093E-1,-3.5712904E-1,-4.0118644E-1,9.22118E-2,-1.0629965E-1,9.508783E-1,-2.5270414E-1,-4.5115587E-1,-4.908137E-1,-3.448572E-1,6.42749E-1,-2.0060892E-1,1.03866234E-1,6.9967407E-1,4.489916E-1,-1.2946814E-1,5.3024906E-1,7.229118E-1,3.466996E-1,1.0140902E0,-4.4326693E-1,-2.2824533E-1,-2.95885E-1,-1.1503376E-1],"split_indices":[3,1,0,5,5,0,3,3,1,5,1,6,0,0,1,1,4,0,5,0,5,5,3,4,5,4,6,0,0,3,5,0,0,0,0,0,0,0,0,0,0,0,0,0,0,0,0,0,0,0,0,0,0,0,0],"split_type":[0,0,0,0,0,0,0,0,0,0,0,0,0,0,0,0,0,0,0,0,0,0,0,0,0,0,0,0,0,0,0,0,0,0,0,0,0,0,0,0,0,0,0,0,0,0,0,0,0,0,0,0,0,0,0],"sum_hessian":[1.708E3,9.57E2,7.51E2,4.61E2,4.96E2,6.99E2,5.2E1,3.34E2,1.27E2,1.99E2,2.97E2,9.6E1,6.03E2,2E0,5E1,3.2E2,1.4E1,2E0,1.25E2,1.24E2,7.5E1,2.27E2,7E1,7E1,2.6E1,5.01E2,1.02E2,1E0,1E0,2.9E1,2.1E1,8.7E1,2.33E2,4E0,1E1,1.22E2,3E0,9E0,6.6E1,1.11E2,1.16E2,2E0,6.8E1,6.8E1,2E0,1E0,2.5E1,4.32E2,6.9E1,9.9E1,3E0,9E0,2E1,8E0,1.3E1],"tree_param":{"num_deleted":"0","num_feature":"7","num_nodes":"55","size_leaf_vector":"1"}},{"base_weights":[-2.1417188E-2,-2.973669E0,3.7395916E0,-2.1853602E0,-3.7004797E0,4.1932383E0,-2.322525E0,-2.903412E0,-2.890109E-1,-3.339297E0,-4.588719E0,6.42283E-1,4.756565E0,-1.7268753E-1,-2.4034462E0,-3.208384E0,-2.0630145E0,1.5201343E0,-6.555351E-1,-4.461001E0,-2.318624E0,-4.2905803E0,-5.548813E-1,1.3434988E0,-5.832076E-1,5.026031E0,3.3970656E0,1.01341344E-1,-1.2724447E-1,-2.7901301E0,-1.7669024E0,-3.674031E-1,-2.940957E-1,-6.0939457E-2,-3.1211612E-1,-1.2684248E-1,4.338184E-1,-3.5687184E-1,-4.765686E-1,-1.7445444E-1,-4.0653387E-1,-5.479054E-1,-4.079174E-1,-4.693757E-2,2.3523143E-1,-3.1846914E-1,1.025661E-1,4.73304E-1,6.3146895E-1,3.143421E-1,1.0804075E0,-4.0337282E-1,-2.0650773E-1,-2.695841E-1,-1.04352035E-1],"categories":[],"categories_nodes":[],"categories_segments":[],"categories_sizes":[],"default_left":[0,0,0,0,0,0,0,0,0,0,0,0,0,0,0,0,0,0,0,0,0,0,0,0,0,0,0,0,0,0,0,0,0,0,0,0,0,0,0,0,0,0,0,0,0,0,0,0,0,0,0,0,0,0,0],"id":19,"left_children":[1,3,5,7,9,11,13,15,17,19,21,23,25,27,29,31,33,-1,35,37,39,41,-1,43,45,47,49,-1,-1,51,53,-1,-1,-1,-1,-1,-1,-1,-1,-1,-1,-1,-1,-1,-1,-1,-1,-1,-1,-1,-1,-1,-1,-1,-1],"loss_changes":[1.8986908E4,5.408008E2,2.0777832E3,6.282556E2,1.4412256E2,1.3971895E3,8.805267E0,7.924097E1,7.3669653E2,3.9838306E2,1.6552246E1,8.413887E1,2.0419434E2,5.202782E0,7.623291E0,1.9579346E1,1.3960715E2,0E0,3.9113806E2,2.8937988E1,1.8242822E2,5.790039E0,0E0,1.1449318E2,1.5394244E2,1.5965039E2,1.595492E2,0E0,0E0,1.8720276E1,1.1970345E1,0E0,0E0,0E0,0E0,0E0,0E0,0E0,0E0,0E0,0E0,0E0,0E0,0E0,0E0,0E0,0E0,0E0,0E0,0E0,0E0,0E0,0E0,0E0,0E0],"parents":[2147483647,0,0,1,1,2,2,3,3,4,4,5,5,6,6,7,7,8,8,9,9,10,10,11,11,12,12,13,13,14,14,15,15,16,16,18,18,19,19,20,20,21,21,23,23,24,24,25,25,26,26,29,29,30,30],"right_children":[2,4,6,8,10,12,14,16,18,20,22,24,26,28,30,32,34,-1,36,38,40,42,-1,44,46,48,50,-1,-1,52,54,-1,-1,-1,-1,-1,-1,-1,-1,-1,-1,-1,-1,-1,-1,-1,-1,-1,-1,-1,-1,-1,-1,-1,-1],"split_conditions":[3.331E1,5E0,2E1,1.964E1,1.7E1,8E0,4.475E1,5E0,1E0,8E0,4.372E1,2.1441668E1,1.8E1,2.1E1,3E0,1.165E1,1.964E1,1.5201343E0,4.598E1,3.62E0,7.341E1,2.24E0,-5.548813E-1,1.7101667E1,4.134E1,7.829E1,7.839E1,1.01341344E-1,-1.2724447E-1,5.622E1,1.839E1,-3.674031E-1,-2.940957E-1,-6.0939457E-2,-3.1211612E-1,-1.2684248E-1,4.338184E-1,-3.5687184E-1,-4.765686E-1,-1.7445444E-1,-4.0653387E-1,-5.479054E-1,-4.079174E-1,-4.693757E-2,2.3523143E-1,-3.1846914E-1,1.025661E-1,4.73304E-1,6.3146895E-1,3.143421E-1,1.0804075E0,-4.0337282E-1,-2.0650773E-1,-2.695841E-1,-1.04352035E-1],"split_indices":[3,1,0,5,0,0,3,0,1,0,5,6,0,0,1,4,4,0,5,4,5,4,0,6,3,4,5,0,0,3,5,0,0,0,0,0,0,0,0,0,0,0,0,0,0,0,0,0,0,0,0,0,0,0,0],"split_type":[0,0,0,0,0,0,0,0,0,0,0,0,0,0,0,0,0,0,0,0,0,0,0,0,0,0,0,0,0,0,0,0,0,0,0,0,0,0,0,0,0,0,0,0,0,0,0,0,0,0,0,0,0,0,0],"sum_hessian":[1.708E3,9.57E2,7.51E2,4.61E2,4.96E2,6.99E2,5.2E1,3.34E2,1.27E2,3.56E2,1.4E2,9.6E1,6.03E2,2E0,5E1,2.43E2,9.1E1,2E0,1.25E2,1.68E2,1.88E2,1.11E2,2.9E1,6.1E1,3.5E1,5.01E2,1.02E2,1E0,1E0,2.9E1,2.1E1,8.4E1,1.59E2,3.9E1,5.2E1,1.12E2,1.3E1,4.6E1,1.22E2,1.43E2,4.5E1,1.3E1,9.8E1,2.2E1,3.9E1,1.3E1,2.2E1,4.12E2,8.9E1,1E2,2E0,9E0,2E1,8E0,1.3E1],"tree_param":{"num_deleted":"0","num_feature":"7","num_nodes":"55","size_leaf_vector":"1"}},{"base_weights":[-1.9668063E-2,-2.6785283E0,3.3675764E0,-1.9651085E0,-3.3363178E0,3.7774448E0,-2.109323E0,-2.283232E0,1.6445646E0,-3.9615676E0,-2.9054914E0,5.7776916E-1,4.285046E0,-1.6405296E-1,-2.1823914E0,-2.9111354E0,-1.3870106E0,8.174975E-1,8.4702605E-1,-4.201897E0,-3.514163E0,-3.3827477E0,-1.3319715E0,1.5183218E0,-2.3171458E-1,3.9829345E0,5.458079E0,9.627428E-2,-1.2088223E-1,-2.729111E0,-1.7724918E0,-3.172022E-1,-2.5168988E-1,1.8006873E-1,-1.947811E-1,-6.1125197E-2,2.2008304E-1,-2.288241E-1,-4.2462474E-1,-1.9403379E-1,-3.696612E-1,-3.9760253E-1,-2.7859113E-1,3.9582965E-1,-1.7927237E-1,-8.490964E-3,4.4294855E-1,-2.256937E-1,1.2783444E-1,5.364815E-1,3.5426664E-1,6.770922E-1,2.1702309E-1,-1.6110761E-1,-4.2047787E-1,-9.807678E-2,-2.8541833E-1],"categories":[],"categories_nodes":[],"categories_segments":[],"categories_sizes":[],"default_left":[0,0,0,0,0,0,0,0,0,0,0,0,0,0,0,0,0,0,0,0,0,0,0,0,0,0,0,0,0,0,0,0,0,0,0,0,0,0,0,0,0,0,0,0,0,0,0,0,0,0,0,0,0,0,0,0,0],"id":20,"left_children":[1,3,5,7,9,11,13,15,17,19,21,23,25,27,29,31,33,35,-1,37,39,41,43,45,47,49,51,-1,-1,53,55,-1,-1,-1,-1,-1,-1,-1,-1,-1,-1,-1,-1,-1,-1,-1,-1,-1,-1,-1,-1,-1,-1,-1,-1,-1,-1],"loss_changes":[1.5400632E4,4.4301416E2,1.6960645E3,5.342794E2,1.22368164E2,1.1344355E3,7.1752625E0,2.3512695E2,2.075973E2,6.7387695E0,2.1928418E2,7.420393E1,1.9230957E2,4.69551E0,6.5917816E0,1.762622E1,3.1992352E2,7.052052E1,0E0,8.925781E-1,1.46502075E1,6.965552E1,1.8015878E2,2.1040321E2,1.6497002E2,2.7545898E2,5.0759302E2,0E0,0E0,2.6222748E1,2.4605553E1,0E0,0E0,0E0,0E0,0E0,0E0,0E0,0E0,0E0,0E0,0E0,0E0,0E0,0E0,0E0,0E0,0E0,0E0,0E0,0E0,0E0,0E0,0E0,0E0,0E0,0E0],"parents":[2147483647,0,0,1,1,2,2,3,3,4,4,5,5,6,6,7,7,8,8,9,9,10,10,11,11,12,12,13,13,14,14,15,15,16,16,17,17,19,19,20,20,21,21,22,22,23,23,24,24,25,25,26,26,29,29,30,30],"right_children":[2,4,6,8,10,12,14,16,18,20,22,24,26,28,30,32,34,36,-1,38,40,42,44,46,48,50,52,-1,-1,54,56,-1,-1,-1,-1,-1,-1,-1,-1,-1,-1,-1,-1,-1,-1,-1,-1,-1,-1,-1,-1,-1,-1,-1,-1,-1,-1],"split_conditions":[3.331E1,5E0,2E1,3.714E1,1.223E1,8E0,4.475E1,5E0,8E0,7.23E0,6E0,1.9575E1,7.783E1,2.1E1,5.622E1,1.555E1,3.885E1,1.252E1,8.4702605E-1,5.3E-1,7.62E0,5.63E1,5.28E0,1.8226667E1,4.2E1,6.404E1,8.278E1,9.627428E-2,-1.2088223E-1,5.45E1,6.468E1,-3.172022E-1,-2.5168988E-1,1.8006873E-1,-1.947811E-1,-6.1125197E-2,2.2008304E-1,-2.288241E-1,-4.2462474E-1,-1.9403379E-1,-3.696612E-1,-3.9760253E-1,-2.7859113E-1,3.9582965E-1,-1.7927237E-1,-8.490964E-3,4.4294855E-1,-2.256937E-1,1.2783444E-1,5.364815E-1,3.5426664E-1,6.770922E-1,2.1702309E-1,-1.6110761E-1,-4.2047787E-1,-9.807678E-2,-2.8541833E-1],"split_indices":[3,1,0,5,5,0,3,0,0,5,1,6,3,0,3,4,6,4,0,4,5,5,3,6,3,4,3,0,0,3,3,0,0,0,0,0,0,0,0,0,0,0,0,0,0,0,0,0,0,0,0,0,0,0,0,0,0],"split_type":[0,0,0,0,0,0,0,0,0,0,0,0,0,0,0,0,0,0,0,0,0,0,0,0,0,0,0,0,0,0,0,0,0,0,0,0,0,0,0,0,0,0,0,0,0,0,0,0,0,0,0,0,0,0,0,0,0],"sum_hessian":[1.708E3,9.57E2,7.51E2,4.61E2,4.96E2,6.99E2,5.2E1,4.24E2,3.7E1,1.99E2,2.97E2,9.6E1,6.03E2,2E0,5E1,2.48E2,1.76E2,3.4E1,3E0,1.24E2,7.5E1,2.27E2,7E1,4.4E1,5.2E1,4.83E2,1.2E2,1E0,1E0,1.9E1,3.1E1,1.45E2,1.03E2,2.6E1,1.5E2,1.7E1,1.7E1,4E0,1.2E2,9E0,6.6E1,1.11E2,1.16E2,5E0,6.5E1,2.9E1,1.5E1,2.2E1,3E1,1.14E2,3.69E2,8.5E1,3.5E1,1.2E1,7E0,1.9E1,1.2E1],"tree_param":{"num_deleted":"0","num_feature":"7","num_nodes":"57","size_leaf_vector":"1"}},{"base_weights":[-1.7772773E-2,-2.411985E0,3.0323243E0,-1.7676834E0,-3.0060601E0,3.402732E0,-1.9170644E0,-2.056282E0,1.5065829E0,-2.7004888E0,-3.7584207E0,5.234625E-1,3.8594975E0,-1.558501E-1,-1.9830757E0,-2.6223063E0,-1.2483933E0,7.4029094E-1,7.834992E-1,-3.6299021E0,-1.855138E0,-3.4727921E0,-4.699486E0,8.732481E-1,-1.4469154E0,3.68675E0,5.8282976E0,9.146061E-2,-1.1483812E-1,-2.2405746E0,-1.2797611E0,-1.9944853E-1,-2.7739447E-1,1.7647044E-1,-1.7325702E-1,-5.5352118E-2,1.9929758E-1,-2.842742E-1,-3.9011753E-1,4.1328833E-2,-2.2034548E-1,-4.601623E-1,-3.278081E-1,-5.092113E-1,-2.9832464E-1,-3.4097314E-1,1.0764815E-1,4.150221E-1,-2.1431553E-1,3.9921185E-1,2.4757038E-1,7.5713503E-1,4.2567268E-1,-2.7403548E-1,-1.1455514E-1,6.859326E-2,-1.7861469E-1],"categories":[],"categories_nodes":[],"categories_segments":[],"categories_sizes":[],"default_left":[0,0,0,0,0,0,0,0,0,0,0,0,0,0,0,0,0,0,0,0,0,0,0,0,0,0,0,0,0,0,0,0,0,0,0,0,0,0,0,0,0,0,0,0,0,0,0,0,0,0,0,0,0,0,0,0,0],"id":21,"left_children":[1,3,5,7,9,11,13,15,17,19,21,23,25,27,29,31,33,35,-1,37,39,41,43,45,47,49,51,-1,-1,53,55,-1,-1,-1,-1,-1,-1,-1,-1,-1,-1,-1,-1,-1,-1,-1,-1,-1,-1,-1,-1,-1,-1,-1,-1,-1,-1],"loss_changes":[1.2487422E4,3.6137354E2,1.3851582E3,4.396643E2,1.0411084E2,9.185845E2,5.852707E0,1.9107227E2,1.7847733E2,2.737539E2,2.1579712E1,6.8116875E1,1.8393652E2,4.2376995E0,6.3688354E0,1.8172607E1,2.612779E2,5.782901E1,0E0,2.4997559E1,1.5024536E2,9.532715E0,5.024292E0,7.5917404E1,6.734881E1,1.9647412E2,9.651941E1,0E0,0E0,1.656253E1,1.7151566E1,0E0,0E0,0E0,0E0,0E0,0E0,0E0,0E0,0E0,0E0,0E0,0E0,0E0,0E0,0E0,0E0,0E0,0E0,0E0,0E0,0E0,0E0,0E0,0E0,0E0,0E0],"parents":[2147483647,0,0,1,1,2,2,3,3,4,4,5,5,6,6,7,7,8,8,9,9,10,10,11,11,12,12,13,13,14,14,15,15,16,16,17,17,19,19,20,20,21,21,22,22,23,23,24,24,25,25,26,26,29,29,30,30],"right_children":[2,4,6,8,10,12,14,16,18,20,22,24,26,28,30,32,34,36,-1,38,40,42,44,46,48,50,52,-1,-1,54,56,-1,-1,-1,-1,-1,-1,-1,-1,-1,-1,-1,-1,-1,-1,-1,-1,-1,-1,-1,-1,-1,-1,-1,-1,-1,-1],"split_conditions":[3.331E1,5E0,2E1,3.714E1,1.7E1,8E0,4.475E1,5E0,8E0,8E0,4.372E1,2.4095E1,8.076E1,2.1E1,7.0236664E1,7.1E0,9E0,1.252E1,7.834992E-1,3.62E0,6.8116665E0,2.24E0,1.252E1,7.23E0,3.59E0,4E0,6.468E1,9.146061E-2,-1.1483812E-1,2.167E1,7.068E1,-1.9944853E-1,-2.7739447E-1,1.7647044E-1,-1.7325702E-1,-5.5352118E-2,1.9929758E-1,-2.842742E-1,-3.9011753E-1,4.1328833E-2,-2.2034548E-1,-4.601623E-1,-3.278081E-1,-5.092113E-1,-2.9832464E-1,-3.4097314E-1,1.0764815E-1,4.150221E-1,-2.1431553E-1,3.9921185E-1,2.4757038E-1,7.5713503E-1,4.2567268E-1,-2.7403548E-1,-1.1455514E-1,6.859326E-2,-1.7861469E-1],"split_indices":[3,1,0,5,0,0,3,0,0,0,5,6,5,0,6,5,0,4,0,4,6,4,3,4,5,1,4,0,0,5,6,0,0,0,0,0,0,0,0,0,0,0,0,0,0,0,0,0,0,0,0,0,0,0,0,0,0],"split_type":[0,0,0,0,0,0,0,0,0,0,0,0,0,0,0,0,0,0,0,0,0,0,0,0,0,0,0,0,0,0,0,0,0,0,0,0,0,0,0,0,0,0,0,0,0,0,0,0,0,0,0,0,0,0,0,0,0],"sum_hessian":[1.708E3,9.57E2,7.51E2,4.61E2,4.96E2,6.99E2,5.2E1,4.24E2,3.7E1,3.56E2,1.4E2,9.6E1,6.03E2,2E0,5E1,2.48E2,1.76E2,3.4E1,3E0,1.68E2,1.88E2,1.11E2,2.9E1,8.2E1,1.4E1,5.57E2,4.6E1,1E0,1E0,3.5E1,1.5E1,5.1E1,1.97E2,2.4E1,1.52E2,1.7E1,1.7E1,4.6E1,1.22E2,2.5E1,1.63E2,1.3E1,9.8E1,2.2E1,7E0,3E0,7.9E1,1E0,1.3E1,4.43E2,1.14E2,2E1,2.6E1,2.3E1,1.2E1,3E0,1.2E1],"tree_param":{"num_deleted":"0","num_feature":"7","num_nodes":"57","size_leaf_vector":"1"}},{"base_weights":[-1.6416222E-2,-2.1728692E0,2.730789E0,-1.5899328E0,-2.7103815E0,3.0650275E0,-1.7352062E0,-2.1402898E0,-1.3712406E-1,-3.34693E0,-2.4093597E0,4.7078112E-1,3.4765785E0,-7.387519E-1,-1.8707807E0,-2.2297022E0,-8.417511E-2,1.3950227E0,-4.714489E-1,-3.209202E0,-4.625671E0,-2.115392E0,-3.459606E0,-4.022696E-1,6.0772485E-1,8.094986E0,3.408867E0,-1.2891567E0,1.3394213E-1,-2.4906669E0,-1.4215143E0,-2.010401E-1,-2.7082106E-1,-3.347733E-1,1.4069127E-1,-7.1863435E-2,7.2473663E-1,-3.5306334E-1,-2.4164513E-1,-1.3692422E-1,-4.7829366E-1,-2.4049616E-1,-4.464443E-2,-2.1275936E-1,-3.9566186E-1,1.6419536E-1,-2.4283297E-2,9.5261174E-1,4.2823258E-1,3.114988E-1,4.5392093E-1,3.2061578E-3,-1.6274767E-1,7.387286E-2,-3.138962E-2,8.275356E-2,-2.7345338E-1,-2.1937983E-1,5.384278E-2],"categories":[],"categories_nodes":[],"categories_segments":[],"categories_sizes":[],"default_left":[0,0,0,0,0,0,0,0,0,0,0,0,0,0,0,0,0,0,0,0,0,0,0,0,0,0,0,0,0,0,0,0,0,0,0,0,0,0,0,0,0,0,0,0,0,0,0,0,0,0,0,0,0,0,0,0,0,0,0],"id":22,"left_children":[1,3,5,7,9,11,13,15,17,19,21,23,25,27,29,31,33,-1,35,37,39,41,43,-1,45,47,49,51,53,55,57,-1,-1,-1,-1,-1,-1,-1,-1,-1,-1,-1,-1,-1,-1,-1,-1,-1,-1,-1,-1,-1,-1,-1,-1,-1,-1,-1,-1],"loss_changes":[1.0130422E4,2.958662E2,1.127835E3,3.6910474E2,8.71687E1,7.45729E2,5.7779083E0,6.139966E1,6.094249E2,1.2805908E1,9.7961426E1,6.2133972E1,1.6128809E2,4.0153527E0,9.270203E0,2.8240234E1,7.770373E1,0E0,2.4561354E2,2.8416626E1,1.0858154E-1,1.2892773E2,3.9909912E1,0E0,8.39675E1,2.8573608E0,1.8417383E2,2.2871523E0,1.3152701E0,1.6828522E1,4.5076527E1,0E0,0E0,0E0,0E0,0E0,0E0,0E0,0E0,0E0,0E0,0E0,0E0,0E0,0E0,0E0,0E0,0E0,0E0,0E0,0E0,0E0,0E0,0E0,0E0,0E0,0E0,0E0,0E0],"parents":[2147483647,0,0,1,1,2,2,3,3,4,4,5,5,6,6,7,7,8,8,9,9,10,10,11,11,12,12,13,13,14,14,15,15,16,16,18,18,19,19,20,20,21,21,22,22,24,24,25,25,26,26,27,27,28,28,29,29,30,30],"right_children":[2,4,6,8,10,12,14,16,18,20,22,24,26,28,30,32,34,-1,36,38,40,42,44,-1,46,48,50,52,54,56,58,-1,-1,-1,-1,-1,-1,-1,-1,-1,-1,-1,-1,-1,-1,-1,-1,-1,-1,-1,-1,-1,-1,-1,-1,-1,-1,-1,-1],"split_conditions":[3.331E1,5E0,2E1,1.964E1,8.79E0,8E0,6.99E0,2.589E1,1E0,1.6408333E1,1.7E1,1.4921667E1,3.477E1,3.65E0,1.839E1,1.891E1,1.678E1,1.3950227E0,5.794E1,9.906667E0,3.16E0,1.5E1,1.896E1,-4.022696E-1,1.9575E1,2.7191668E1,7.783E1,1.08E0,6.062E1,6.519833E1,6.534E1,-2.010401E-1,-2.7082106E-1,-3.347733E-1,1.4069127E-1,-7.1863435E-2,7.2473663E-1,-3.5306334E-1,-2.4164513E-1,-1.3692422E-1,-4.7829366E-1,-2.4049616E-1,-4.464443E-2,-2.1275936E-1,-3.9566186E-1,1.6419536E-1,-2.4283297E-2,9.5261174E-1,4.2823258E-1,3.114988E-1,4.5392093E-1,3.2061578E-3,-1.6274767E-1,7.387286E-2,-3.138962E-2,8.275356E-2,-2.7345338E-1,-2.1937983E-1,5.384278E-2],"split_indices":[3,1,0,5,5,0,5,3,1,6,0,6,3,5,5,4,4,0,5,6,5,0,5,0,6,6,3,5,3,6,4,0,0,0,0,0,0,0,0,0,0,0,0,0,0,0,0,0,0,0,0,0,0,0,0,0,0,0,0],"split_type":[0,0,0,0,0,0,0,0,0,0,0,0,0,0,0,0,0,0,0,0,0,0,0,0,0,0,0,0,0,0,0,0,0,0,0,0,0,0,0,0,0,0,0,0,0,0,0,0,0,0,0,0,0,0,0,0,0,0,0],"sum_hessian":[1.708E3,9.57E2,7.51E2,4.61E2,4.96E2,6.99E2,5.2E1,3.34E2,1.27E2,1.56E2,3.4E2,9.6E1,6.03E2,7E0,4.5E1,3.2E2,1.4E1,2E0,1.25E2,1.44E2,1.2E1,2.68E2,7.2E1,2E0,9.4E1,7E0,5.96E2,4E0,3E0,1.7E1,2.8E1,2.23E2,9.7E1,4E0,1E1,1.22E2,3E0,1E2,4.4E1,1E0,1.1E1,2.28E2,4E1,2.1E1,5.1E1,4.2E1,5.2E1,4E0,3E0,4.76E2,1.2E2,1E0,3E0,1E0,2E0,1E0,1.6E1,2E1,8E0],"tree_param":{"num_deleted":"0","num_feature":"7","num_nodes":"59","size_leaf_vector":"1"}},{"base_weights":[-1.4371711E-2,-1.9563353E0,2.459585E0,-1.4279481E0,-2.4435759E0,2.7612152E0,-1.570616E0,-1.6658533E0,1.5220897E0,-2.9313564E0,-2.1080062E0,4.2099857E-1,3.132473E0,-1.0392042E0,-1.8611927E0,-2.1550174E0,-9.7992134E-1,-1.1326826E-1,3.7101183E0,-2.6135879E0,-3.2169554E0,-2.497966E0,-8.2605135E-1,-3.2771487E0,5.738878E-1,3.5783343E0,2.5124028E0,-1.4634788E0,1.1298323E0,-2.732326E0,-1.2332914E0,-2.2380662E-1,-1.0922064E-1,8.3352916E-2,-1.6086696E-1,-4.0865222E-1,2.1652532E-1,-2.563027E-1,4.8723736E-1,-3.44627E-1,-2.2744527E-1,-3.7088522E-1,-2.7381167E-1,-3.1168503E-1,-2.1290253E-1,-1.28358E-1,3.5404366E-1,-3.0246736E-3,-4.3493673E-1,1.5607814E-1,-2.190069E-2,3.7815717E-1,4.60022E-3,6.574603E-1,2.2502318E-1,-7.77522E-2,-2.7058056E-1,-2.1872978E-1,2.9646417E-1,-3.150817E-1,-1.00301795E-1,-1.944174E-1,-2.5690326E-2],"categories":[],"categories_nodes":[],"categories_segments":[],"categories_sizes":[],"default_left":[0,0,0,0,0,0,0,0,0,0,0,0,0,0,0,0,0,0,0,0,0,0,0,0,0,0,0,0,0,0,0,0,0,0,0,0,0,0,0,0,0,0,0,0,0,0,0,0,0,0,0,0,0,0,0,0,0,0,0,0,0,0,0],"id":23,"left_children":[1,3,5,7,9,11,13,15,17,19,21,23,25,27,29,31,33,35,37,39,41,43,45,47,49,51,53,55,57,59,61,-1,-1,-1,-1,-1,-1,-1,-1,-1,-1,-1,-1,-1,-1,-1,-1,-1,-1,-1,-1,-1,-1,-1,-1,-1,-1,-1,-1,-1,-1,-1,-1],"loss_changes":[8.215419E3,2.4314941E2,9.184907E2,3.2678058E2,7.5171875E1,6.068579E2,6.249878E0,1.4149658E2,1.25657585E2,9.743042E0,1.4690991E2,5.6725197E1,1.5799512E2,2.0979092E1,1.4680771E1,1.953357E1,2.0657755E2,1.989644E2,1.2185298E2,2.0400757E1,1.3634155E1,4.542383E1,1.4638777E2,1.3793995E1,7.389708E1,2.5037402E2,2.5784338E2,1.3235462E1,3.0829762E1,6.2477646E0,1.4076576E1,0E0,0E0,0E0,0E0,0E0,0E0,0E0,0E0,0E0,0E0,0E0,0E0,0E0,0E0,0E0,0E0,0E0,0E0,0E0,0E0,0E0,0E0,0E0,0E0,0E0,0E0,0E0,0E0,0E0,0E0,0E0,0E0],"parents":[2147483647,0,0,1,1,2,2,3,3,4,4,5,5,6,6,7,7,8,8,9,9,10,10,11,11,12,12,13,13,14,14,15,15,16,16,17,17,18,18,19,19,20,20,21,21,22,22,23,23,24,24,25,25,26,26,27,27,28,28,29,29,30,30],"right_children":[2,4,6,8,10,12,14,16,18,20,22,24,26,28,30,32,34,36,38,40,42,44,46,48,50,52,54,56,58,60,62,-1,-1,-1,-1,-1,-1,-1,-1,-1,-1,-1,-1,-1,-1,-1,-1,-1,-1,-1,-1,-1,-1,-1,-1,-1,-1,-1,-1,-1,-1,-1,-1],"split_conditions":[3.331E1,5E0,2E1,3.846E1,1.223E1,8E0,5.63E1,5E0,1.384E1,5.71E0,6E0,7.23E0,1.5E1,5.516E1,6.837E1,3.3416668E1,4.1523335E1,2E0,7.23E0,2.66E0,6.2E0,5.95E0,2.483E1,4.017E1,1.9575E1,8.376E1,6.265E1,4E0,2E0,6.584E1,1.839E1,-2.2380662E-1,-1.0922064E-1,8.3352916E-2,-1.6086696E-1,-4.0865222E-1,2.1652532E-1,-2.563027E-1,4.8723736E-1,-3.44627E-1,-2.2744527E-1,-3.7088522E-1,-2.7381167E-1,-3.1168503E-1,-2.1290253E-1,-1.28358E-1,3.5404366E-1,-3.0246736E-3,-4.3493673E-1,1.5607814E-1,-2.190069E-2,3.7815717E-1,4.60022E-3,6.574603E-1,2.2502318E-1,-7.77522E-2,-2.7058056E-1,-2.1872978E-1,2.9646417E-1,-3.150817E-1,-1.00301795E-1,-1.944174E-1,-2.5690326E-2],"split_indices":[3,1,0,5,5,0,4,0,4,3,1,4,0,4,6,6,6,1,3,3,5,3,5,3,6,3,4,1,1,4,5,0,0,0,0,0,0,0,0,0,0,0,0,0,0,0,0,0,0,0,0,0,0,0,0,0,0,0,0,0,0,0,0],"split_type":[0,0,0,0,0,0,0,0,0,0,0,0,0,0,0,0,0,0,0,0,0,0,0,0,0,0,0,0,0,0,0,0,0,0,0,0,0,0,0,0,0,0,0,0,0,0,0,0,0,0,0,0,0,0,0,0,0,0,0,0,0,0,0],"sum_hessian":[1.708E3,9.57E2,7.51E2,4.61E2,4.96E2,6.99E2,5.2E1,4.27E2,3.4E1,1.99E2,2.97E2,9.6E1,6.03E2,2E1,3.2E1,2.48E2,1.79E2,2E1,1.4E1,9.9E1,1E2,2.27E2,7E1,3E0,9.3E1,3.48E2,2.55E2,1.7E1,3E0,1.2E1,2E1,2.29E2,1.9E1,4.6E1,1.33E2,7E0,1.3E1,2E0,1.2E1,2.6E1,7.3E1,4.6E1,5.4E1,8.2E1,1.45E2,6.4E1,6E0,1E0,2E0,4.1E1,5.2E1,3.29E2,1.9E1,1.4E1,2.41E2,1.2E1,5E0,1E0,2E0,9E0,3E0,1.1E1,9E0],"tree_param":{"num_deleted":"0","num_feature":"7","num_nodes":"63","size_leaf_vector":"1"}},{"base_weights":[-1.4006522E-2,-1.7626718E0,2.2137E0,-1.2859577E0,-2.202268E0,2.4864671E0,-1.4306501E0,-1.4220113E0,3.1693273E0,-1.9632374E0,-2.791854E0,3.7576658E-1,2.8213205E0,1.2914021E-1,-1.4943504E0,-1.9408534E0,-7.721918E-1,-4.0060416E-1,4.0294356E0,-2.700974E0,-1.2931807E0,-2.5445452E0,-3.6220775E0,-3.8585675E-1,5.0552696E-1,2.6683576E0,4.5773206E0,1.01744175E-1,-8.237314E-2,-2.0087779E0,-1.1261349E0,-2.1843553E-1,-1.5803523E-1,5.7287868E-2,-1.4490023E-1,2.7029118E-1,6.3383865E-1,-2.5799227E-1,-4.5663404E-1,-8.035823E-2,-2.797724E-1,-3.6140785E-1,-2.3675954E-1,-1.2511356E-1,-3.8391772E-1,6.561268E-1,3.713035E-2,2.946921E-1,1.5696575E-1,3.8291842E-1,7.7458376E-1,-1.0770368E-1,-3.27176E-1,-4.7979455E-2,-2.0338789E-1],"categories":[],"categories_nodes":[],"categories_segments":[],"categories_sizes":[],"default_left":[0,0,0,0,0,0,0,0,0,0,0,0,0,0,0,0,0,0,0,0,0,0,0,0,0,0,0,0,0,0,0,0,0,0,0,0,0,0,0,0,0,0,0,0,0,0,0,0,0,0,0,0,0,0,0],"id":24,"left_children":[1,3,5,7,9,11,13,15,17,19,21,23,25,27,29,31,33,-1,35,37,39,41,43,-1,45,47,49,-1,-1,51,53,-1,-1,-1,-1,-1,-1,-1,-1,-1,-1,-1,-1,-1,-1,-1,-1,-1,-1,-1,-1,-1,-1,-1,-1],"loss_changes":[6.661334E3,1.9792773E2,7.5108887E2,2.845515E2,6.456055E1,4.9368213E2,5.4590225E0,1.4988336E2,1.0254442E2,1.7298132E2,1.9733887E1,5.5247147E1,1.5002295E2,3.3774107E0,7.3982773E0,1.8405823E1,1.8381201E2,0E0,2.2685333E1,2.6380249E1,1.3697336E2,1.2639709E1,1.063855E1,0E0,7.478194E1,1.661543E2,8.175244E1,0E0,0E0,2.0011642E1,1.7798923E1,0E0,0E0,0E0,0E0,0E0,0E0,0E0,0E0,0E0,0E0,0E0,0E0,0E0,0E0,0E0,0E0,0E0,0E0,0E0,0E0,0E0,0E0,0E0,0E0],"parents":[2147483647,0,0,1,1,2,2,3,3,4,4,5,5,6,6,7,7,8,8,9,9,10,10,11,11,12,12,13,13,14,14,15,15,16,16,18,18,19,19,20,20,21,21,22,22,24,24,25,25,26,26,29,29,30,30],"right_children":[2,4,6,8,10,12,14,16,18,20,22,24,26,28,30,32,34,-1,36,38,40,42,44,-1,46,48,50,-1,-1,52,54,-1,-1,-1,-1,-1,-1,-1,-1,-1,-1,-1,-1,-1,-1,-1,-1,-1,-1,-1,-1,-1,-1,-1,-1],"split_conditions":[3.331E1,5E0,2E1,4.598E1,1.7E1,8E0,4.475E1,5E0,6.51E0,8E0,4.372E1,1.4921667E1,8.076E1,2.1E1,5.622E1,1.555E1,4.1523335E1,-4.0060416E-1,6E0,3.0798334E1,7.341E1,2.24E0,4.57E0,-3.8585675E-1,1.4975E1,4E0,1.6E1,1.01744175E-1,-8.237314E-2,5.45E1,6.468E1,-2.1843553E-1,-1.5803523E-1,5.7287868E-2,-1.4490023E-1,2.7029118E-1,6.3383865E-1,-2.5799227E-1,-4.5663404E-1,-8.035823E-2,-2.797724E-1,-3.6140785E-1,-2.3675954E-1,-1.2511356E-1,-3.8391772E-1,6.561268E-1,3.713035E-2,2.946921E-1,1.5696575E-1,3.8291842E-1,7.7458376E-1,-1.0770368E-1,-3.27176E-1,-4.7979455E-2,-2.0338789E-1],"split_indices":[3,1,0,5,0,0,3,0,3,0,5,6,5,0,3,4,6,0,0,6,5,4,4,0,6,1,0,0,0,3,3,0,0,0,0,0,0,0,0,0,0,0,0,0,0,0,0,0,0,0,0,0,0,0,0],"split_type":[0,0,0,0,0,0,0,0,0,0,0,0,0,0,0,0,0,0,0,0,0,0,0,0,0,0,0,0,0,0,0,0,0,0,0,0,0,0,0,0,0,0,0,0,0,0,0,0,0,0,0,0,0,0,0],"sum_hessian":[1.708E3,9.57E2,7.51E2,4.61E2,4.96E2,6.99E2,5.2E1,4.48E2,1.3E1,3.56E2,1.4E2,9.6E1,6.03E2,2E0,5E1,2.48E2,2E2,1E0,1.2E1,1.68E2,1.88E2,1.11E2,2.9E1,2E0,9.4E1,5.57E2,4.6E1,1E0,1E0,1.9E1,3.1E1,1.45E2,1.03E2,6.7E1,1.33E2,9E0,3E0,1.6E2,8E0,1.43E2,4.5E1,1.3E1,9.8E1,3E0,2.6E1,1E0,9.3E1,4.43E2,1.14E2,3.9E1,7E0,1.2E1,7E0,1.9E1,1.2E1],"tree_param":{"num_deleted":"0","num_feature":"7","num_nodes":"55","size_leaf_vector":"1"}},{"base_weights":[-1.3128629E-2,-1.5886413E0,1.9939914E0,-1.157277E0,-1.9864314E0,2.2405577E0,-1.3001676E0,-1.2808442E0,2.8883615E0,-2.404527E0,-1.6991644E0,3.4136075E-1,2.5418515E0,-1.1016145E0,-1.9581323E0,-1.7482802E0,-6.9540936E-1,-3.8057396E-1,3.6960413E0,-2.1065745E0,-2.675722E0,2.3870184E0,-1.7770413E0,-3.0867705E0,4.836072E-1,6.8927507E0,2.4792905E0,-1.4150441E0,2.308085E0,1.1707306E-3,-2.156287E0,-1.1767123E-1,-1.8895592E-1,2.0537866E-2,-1.5893121E-1,2.4596505E-1,5.8630085E-1,-2.8661737E-1,-1.8009564E-1,-1.6179684E-1,-2.8705296E-1,-1.3864335E-1,4.6203527E-1,-1.5287909E-1,-2.5759766E-1,-4.729843E-3,-4.0841618E-1,1.377579E-1,-2.3394791E-2,8.2356447E-1,3.490946E-1,2.2039004E-1,3.5444292E-1,-1.978998E-1,-6.875689E-2,3.462145E-1,-5.7704736E-2,-2.3353727E-1,-2.7225781E-2],"categories":[],"categories_nodes":[],"categories_segments":[],"categories_sizes":[],"default_left":[0,0,0,0,0,0,0,0,0,0,0,0,0,0,0,0,0,0,0,0,0,0,0,0,0,0,0,0,0,0,0,0,0,0,0,0,0,0,0,0,0,0,0,0,0,0,0,0,0,0,0,0,0,0,0,0,0,0,0],"id":25,"left_children":[1,3,5,7,9,11,13,15,17,19,21,23,25,27,29,31,33,-1,35,37,39,41,43,45,47,49,51,53,55,-1,57,-1,-1,-1,-1,-1,-1,-1,-1,-1,-1,-1,-1,-1,-1,-1,-1,-1,-1,-1,-1,-1,-1,-1,-1,-1,-1,-1,-1],"loss_changes":[5.407441E3,1.6208643E2,6.137092E2,2.3465704E2,5.5606445E1,3.9968384E2,4.7668686E0,1.2165466E2,8.975985E1,1.0523926E1,9.9071106E1,4.879381E1,1.4731812E2,4.922017E1,4.318905E0,1.7883362E1,1.6217499E2,0E0,2.0408905E1,1.8052887E1,1.6167542E1,5.6970093E1,5.4174316E1,1.1932999E1,6.0620827E1,7.795929E0,1.6730566E2,1.5049805E1,1.531628E1,0E0,2.7382011E0,0E0,0E0,0E0,0E0,0E0,0E0,0E0,0E0,0E0,0E0,0E0,0E0,0E0,0E0,0E0,0E0,0E0,0E0,0E0,0E0,0E0,0E0,0E0,0E0,0E0,0E0,0E0,0E0],"parents":[2147483647,0,0,1,1,2,2,3,3,4,4,5,5,6,6,7,7,8,8,9,9,10,10,11,11,12,12,13,13,14,14,15,15,16,16,18,18,19,19,20,20,21,21,22,22,23,23,24,24,25,25,26,26,27,27,28,28,30,30],"right_children":[2,4,6,8,10,12,14,16,18,20,22,24,26,28,30,32,34,-1,36,38,40,42,44,46,48,50,52,54,56,-1,58,-1,-1,-1,-1,-1,-1,-1,-1,-1,-1,-1,-1,-1,-1,-1,-1,-1,-1,-1,-1,-1,-1,-1,-1,-1,-1,-1,-1],"split_conditions":[3.331E1,5E0,2E1,4.598E1,1.223E1,8E0,2.325E1,5E0,6.51E0,5.71E0,1.252E1,7.23E0,3.477E1,2.208E1,4.372E1,7.1E0,1.887E1,-3.8057396E-1,6E0,2.66E0,6E0,9E0,1.7E1,4.017E1,1.9575E1,2.7191668E1,7.783E1,6.903167E1,6.116E1,1.1707306E-3,2.739E1,-1.1767123E-1,-1.8895592E-1,2.0537866E-2,-1.5893121E-1,2.4596505E-1,5.8630085E-1,-2.8661737E-1,-1.8009564E-1,-1.6179684E-1,-2.8705296E-1,-1.3864335E-1,4.6203527E-1,-1.5287909E-1,-2.5759766E-1,-4.729843E-3,-4.0841618E-1,1.377579E-1,-2.3394791E-2,8.2356447E-1,3.490946E-1,2.2039004E-1,3.5444292E-1,-1.978998E-1,-6.875689E-2,3.462145E-1,-5.7704736E-2,-2.3353727E-1,-2.7225781E-2],"split_indices":[3,1,0,5,5,0,5,0,3,3,5,4,3,5,4,5,3,0,0,3,1,0,0,3,6,6,3,6,4,0,5,0,0,0,0,0,0,0,0,0,0,0,0,0,0,0,0,0,0,0,0,0,0,0,0,0,0,0,0],"split_type":[0,0,0,0,0,0,0,0,0,0,0,0,0,0,0,0,0,0,0,0,0,0,0,0,0,0,0,0,0,0,0,0,0,0,0,0,0,0,0,0,0,0,0,0,0,0,0,0,0,0,0,0,0,0,0,0,0,0,0],"sum_hessian":[1.708E3,9.57E2,7.51E2,4.61E2,4.96E2,6.99E2,5.2E1,4.48E2,1.3E1,1.99E2,2.97E2,9.6E1,6.03E2,4.2E1,1E1,2.48E2,2E2,1E0,1.2E1,9.9E1,1E2,5E0,2.92E2,3E0,9.3E1,7E0,5.96E2,3.9E1,3E0,1E0,9E0,5.1E1,1.97E2,1E2,1E2,9E0,3E0,2.6E1,7.3E1,1.7E1,8.3E1,2E0,3E0,2.25E2,6.7E1,1E0,2E0,4.1E1,5.2E1,4E0,3E0,4.76E2,1.2E2,2.1E1,1.8E1,2E0,1E0,8E0,1E0],"tree_param":{"num_deleted":"0","num_feature":"7","num_nodes":"59","size_leaf_vector":"1"}},{"base_weights":[-1.169013E-2,-1.4990518E0,1.7163719E0,-1.978171E0,-1.2849284E0,8.064556E-1,2.5182111E0,-1.8805027E0,-2.9497502E0,-1.5737842E0,-7.895489E-1,2.3283749E0,-2.4394347E-1,2.117064E0,4.249945E0,-2.187554E0,-1.5996848E0,-3.8748279E0,-9.774177E-1,-9.082469E-1,-1.723653E0,-1.8415211E-1,-1.812503E0,2.7106414E-2,3.4901333E0,-7.9600126E-1,1.0646166E0,2.3025956E0,-9.9440193E-1,1.7976557E0,6.534679E0,-2.6656267E-1,-1.4791083E-1,9.7011233E-4,-2.1622829E-1,-8.7602444E-2,-4.240655E-1,6.393372E-2,-1.8923514E-1,-1.1452401E-1,3.6439416E-1,-2.1806717E-1,-1.4883164E-1,5.666017E-2,-2.0056634E-1,-2.056735E-1,1.868123E-1,9.1301195E-2,-3.784998E-1,5.9297115E-1,1.7932014E-1,-5.0757673E-2,-4.956242E-1,2.9656497E-1,-1.621273E-1,2.1370223E-1,6.8196356E-1,-3.8164124E-1,4.8763197E-2,8.182106E-1,1.03833735E-1,5.603966E-1,1.192888E0],"categories":[],"categories_nodes":[],"categories_segments":[],"categories_sizes":[],"default_left":[0,0,0,0,0,0,0,0,0,0,0,0,0,0,0,0,0,0,0,0,0,0,0,0,0,0,0,0,0,0,0,0,0,0,0,0,0,0,0,0,0,0,0,0,0,0,0,0,0,0,0,0,0,0,0,0,0,0,0,0,0,0,0],"id":26,"left_children":[1,3,5,7,9,11,13,15,17,19,21,23,25,27,29,31,33,35,37,39,41,43,45,47,49,51,53,55,57,59,61,-1,-1,-1,-1,-1,-1,-1,-1,-1,-1,-1,-1,-1,-1,-1,-1,-1,-1,-1,-1,-1,-1,-1,-1,-1,-1,-1,-1,-1,-1,-1,-1],"loss_changes":[4.3951357E3,9.173901E1,5.750879E2,2.1212646E1,9.00509E1,5.952556E2,2.8276855E2,1.8833008E1,4.0002136E1,3.853125E1,1.4643867E2,4.0628015E2,1.60498E2,2.0029529E2,4.2527356E2,3.7038574E1,1.2587677E2,1.3837784E1,1.4522861E1,8.6164856E1,3.1924316E1,2.0626239E2,8.2947784E1,1.790683E2,4.0748633E2,1.8467114E2,3.418018E2,2.2774622E2,8.55073E1,1.8056958E2,1.3396912E2,0E0,0E0,0E0,0E0,0E0,0E0,0E0,0E0,0E0,0E0,0E0,0E0,0E0,0E0,0E0,0E0,0E0,0E0,0E0,0E0,0E0,0E0,0E0,0E0,0E0,0E0,0E0,0E0,0E0,0E0,0E0,0E0],"parents":[2147483647,0,0,1,1,2,2,3,3,4,4,5,5,6,6,7,7,8,8,9,9,10,10,11,11,12,12,13,13,14,14,15,15,16,16,17,17,18,18,19,19,20,20,21,21,22,22,23,23,24,24,25,25,26,26,27,27,28,28,29,29,30,30],"right_children":[2,4,6,8,10,12,14,16,18,20,22,24,26,28,30,32,34,36,38,40,42,44,46,48,50,52,54,56,58,60,62,-1,-1,-1,-1,-1,-1,-1,-1,-1,-1,-1,-1,-1,-1,-1,-1,-1,-1,-1,-1,-1,-1,-1,-1,-1,-1,-1,-1,-1,-1,-1,-1],"split_conditions":[2.643E1,7.4E0,6.314E1,1.6013334E1,1.909E1,1E0,7.829E1,7E0,2.2871666E1,1E0,6.22E1,7.23E0,5.18E1,8.278E1,7.482E1,5.818333E0,1.4E1,5.05E0,1.866E1,2.574E1,1.581E1,1.887E1,1.7928333E1,6.07E0,6.96E1,7.455E1,7.0236664E1,8.039E1,3E0,6.725E1,1.8E1,-2.6656267E-1,-1.4791083E-1,9.7011233E-4,-2.1622829E-1,-8.7602444E-2,-4.240655E-1,6.393372E-2,-1.8923514E-1,-1.1452401E-1,3.6439416E-1,-2.1806717E-1,-1.4883164E-1,5.666017E-2,-2.0056634E-1,-2.056735E-1,1.868123E-1,9.1301195E-2,-3.784998E-1,5.9297115E-1,1.7932014E-1,-5.0757673E-2,-4.956242E-1,2.9656497E-1,-1.621273E-1,2.1370223E-1,6.8196356E-1,-3.8164124E-1,4.8763197E-2,8.182106E-1,1.03833735E-1,5.603966E-1,1.192888E0],"split_indices":[3,3,5,6,5,1,4,0,6,1,5,5,5,3,3,6,0,4,4,3,6,3,6,5,3,4,6,3,1,5,0,0,0,0,0,0,0,0,0,0,0,0,0,0,0,0,0,0,0,0,0,0,0,0,0,0,0,0,0,0,0,0,0],"split_type":[0,0,0,0,0,0,0,0,0,0,0,0,0,0,0,0,0,0,0,0,0,0,0,0,0,0,0,0,0,0,0,0,0,0,0,0,0,0,0,0,0,0,0,0,0,0,0,0,0,0,0,0,0,0,0,0,0,0,0,0,0,0,0],"sum_hessian":[1.708E3,9.18E2,7.9E2,2.81E2,6.37E2,3.71E2,4.19E2,2.58E2,2.3E1,4.01E2,2.36E2,1.51E2,2.2E2,3.42E2,7.7E1,1.2E2,1.38E2,1.5E1,8E0,7.5E1,3.26E2,1.49E2,8.7E1,5.1E1,1E2,1.55E2,6.5E1,3.23E2,1.9E1,3.8E1,3.9E1,7E1,5E1,3.6E1,1.02E2,2E0,1.3E1,3E0,5E0,7.2E1,3E0,1.08E2,2.18E2,1.06E2,4.3E1,8.2E1,5E0,4.2E1,9E0,4E1,6E1,1.46E2,9E0,3.8E1,2.7E1,3.13E2,1E1,6E0,1.3E1,3E0,3.5E1,3.5E1,4E0],"tree_param":{"num_deleted":"0","num_feature":"7","num_nodes":"63","size_leaf_vector":"1"}},{"base_weights":[-9.48789E-3,-1.2904688E0,1.6224127E0,-9.2937917E-1,-1.6235331E0,8.2997805E-1,2.351924E0,-1.037492E0,2.6043406E0,-2.068359E0,-1.3901012E0,1.8886087E0,9.738591E-2,4.187684E0,1.9798251E0,-1.161206E0,5.066986E-1,-3.5414973E-1,3.3495202E0,-1.9518937E0,-3.9219747E0,-1.0228948E-1,-1.8312192E0,1.7640188E-2,2.8430045E0,6.925965E-1,-1.0699085E0,2.468767E0,7.4351697E0,2.1587923E0,-1.2123767E0,-9.938619E-2,-2.667552E-1,7.1027076E-1,-1.1603999E-1,2.207746E-1,5.366575E-1,-2.3922637E-1,-1.4278975E-1,-8.71218E-2,-4.194417E-1,7.876978E-2,-1.5285634E-1,-1.6947715E-1,-4.3393454E-1,8.415031E-2,-3.444348E-1,3.8081872E-1,-4.699042E-2,-1.3191688E-2,2.0142165E-1,-5.0117966E-2,-7.337185E-1,1.1718651E-1,9.1564095E-1,8.7906075E-1,2.3555668E-1,1.9249552E-1,6.075807E-1,-2.781209E-1,1.6502468E-1],"categories":[],"categories_nodes":[],"categories_segments":[],"categories_sizes":[],"default_left":[0,0,0,0,0,0,0,0,0,0,0,0,0,0,0,0,0,0,0,0,0,0,0,0,0,0,0,0,0,0,0,0,0,0,0,0,0,0,0,0,0,0,0,0,0,0,0,0,0,0,0,0,0,0,0,0,0,0,0,0,0],"id":27,"left_children":[1,3,5,7,9,11,13,15,17,19,21,23,25,27,29,31,33,-1,35,37,39,41,43,45,47,49,51,53,55,57,59,-1,-1,-1,-1,-1,-1,-1,-1,-1,-1,-1,-1,-1,-1,-1,-1,-1,-1,-1,-1,-1,-1,-1,-1,-1,-1,-1,-1,-1,-1],"loss_changes":[3.5746445E3,1.13706055E2,4.3277148E2,1.792048E2,4.8731567E1,2.8056317E2,2.587954E2,8.636441E1,7.597887E1,2.8828735E1,1.8670996E2,2.6422522E2,1.5012001E2,3.444845E2,1.8943213E2,1.0221332E2,3.8211267E2,0E0,1.8091248E1,3.373517E1,3.8261414E0,1.0910012E2,7.649158E1,1.4836081E2,3.151507E2,1.5609183E2,2.565226E2,3.7089136E2,1.3076501E2,2.7224658E2,8.5427246E1,0E0,0E0,0E0,0E0,0E0,0E0,0E0,0E0,0E0,0E0,0E0,0E0,0E0,0E0,0E0,0E0,0E0,0E0,0E0,0E0,0E0,0E0,0E0,0E0,0E0,0E0,0E0,0E0,0E0,0E0],"parents":[2147483647,0,0,1,1,2,2,3,3,4,4,5,5,6,6,7,7,8,8,9,9,10,10,11,11,12,12,13,13,14,14,15,15,16,16,18,18,19,19,20,20,21,21,22,22,23,23,24,24,25,25,26,26,27,27,28,28,29,29,30,30],"right_children":[2,4,6,8,10,12,14,16,18,20,22,24,26,28,30,32,34,-1,36,38,40,42,44,46,48,50,52,54,56,58,60,-1,-1,-1,-1,-1,-1,-1,-1,-1,-1,-1,-1,-1,-1,-1,-1,-1,-1,-1,-1,-1,-1,-1,-1,-1,-1,-1,-1,-1,-1],"split_conditions":[3.331E1,5E0,6.538E1,4.598E1,8E0,1E0,6.88E1,2.589E1,6.51E0,3.0798334E1,1.2E1,7.23E0,1.9E1,6.796E1,8.278E1,2.227E1,1E0,-3.5414973E-1,6E0,5.9333334E0,1.206E1,1.64E1,7.948E1,6.07E0,1.896E1,6.725E1,6.116E1,7.923E1,7.0543335E1,8.039E1,7.664E1,-9.938619E-2,-2.667552E-1,7.1027076E-1,-1.1603999E-1,2.207746E-1,5.366575E-1,-2.3922637E-1,-1.4278975E-1,-8.71218E-2,-4.194417E-1,7.876978E-2,-1.5285634E-1,-1.6947715E-1,-4.3393454E-1,8.415031E-2,-3.444348E-1,3.8081872E-1,-4.699042E-2,-1.3191688E-2,2.0142165E-1,-5.0117966E-2,-7.337185E-1,1.1718651E-1,9.1564095E-1,8.7906075E-1,2.3555668E-1,1.9249552E-1,6.075807E-1,-2.781209E-1,1.6502468E-1],"split_indices":[3,1,5,5,0,1,5,3,3,6,0,5,0,5,3,3,1,0,0,6,3,3,5,5,5,3,5,4,6,3,5,0,0,0,0,0,0,0,0,0,0,0,0,0,0,0,0,0,0,0,0,0,0,0,0,0,0,0,0,0,0],"split_type":[0,0,0,0,0,0,0,0,0,0,0,0,0,0,0,0,0,0,0,0,0,0,0,0,0,0,0,0,0,0,0,0,0,0,0,0,0,0,0,0,0,0,0,0,0,0,0,0,0,0,0,0,0,0,0,0,0,0,0,0,0],"sum_hessian":[1.708E3,9.57E2,7.51E2,4.61E2,4.96E2,3.61E2,3.9E2,4.48E2,1.3E1,1.68E2,3.28E2,1.47E2,2.14E2,6.4E1,3.26E2,4.15E2,3.3E1,1E0,1.2E1,1.6E2,8E0,8.4E1,2.44E2,5E1,9.7E1,1.42E2,7.2E1,4.3E1,2.1E1,3.09E2,1.7E1,3.75E2,4E1,6E0,2.7E1,9E0,3E0,8.5E1,7.5E1,1E0,7E0,5.2E1,3.2E1,2.33E2,1.1E1,4.1E1,9E0,7.5E1,2.2E1,8.8E1,5.4E1,6.7E1,5E0,3.7E1,6E0,1.6E1,5E0,2.93E2,1.6E1,1.1E1,6E0],"tree_param":{"num_deleted":"0","num_feature":"7","num_nodes":"61","size_leaf_vector":"1"}},{"base_weights":[-7.733433E-3,-1.2188324E0,1.3993559E0,-1.6235603E0,-1.0380298E0,6.9497615E-1,2.100202E0,-1.531195E0,-2.5526867E0,-1.2965363E0,-5.951705E-1,1.8966292E0,-5.3375807E-2,3.8100016E0,1.7529302E0,-2.1141381E0,-1.4213942E0,-1.38138E0,-4.0543785E0,-6.730643E-1,-1.4541976E0,-6.595457E-2,-1.4904797E0,-1.5207621E-3,2.855116E0,-6.7936045E-1,1.0322573E0,2.9664485E0,9.554955E0,1.9107435E0,-1.0974212E0,-2.3464207E-1,5.049422E-2,-1.2335142E-1,-2.1927519E-1,-2.0289205E-1,3.194849E-2,-1.3728127E-1,-4.5531684E-1,-9.163802E-2,4.3615198E-1,-2.48703E-1,-1.1443148E-1,-4.53697E-2,2.8026953E-1,-1.0640999E-1,-3.6681944E-1,7.270808E-2,-3.1343552E-1,4.9868676E-1,1.3754943E-1,-2.622811E-2,-3.3480954E-1,1.8246988E-2,3.0083367E-1,1.24843396E-1,7.137518E-1,3.6462352E-1,1.0916823E0,1.6993491E-1,5.5039656E-1,-2.7132675E-1,1.2615453E-1],"categories":[],"categories_nodes":[],"categories_segments":[],"categories_sizes":[],"default_left":[0,0,0,0,0,0,0,0,0,0,0,0,0,0,0,0,0,0,0,0,0,0,0,0,0,0,0,0,0,0,0,0,0,0,0,0,0,0,0,0,0,0,0,0,0,0,0,0,0,0,0,0,0,0,0,0,0,0,0,0,0,0,0],"id":28,"left_children":[1,3,5,7,9,11,13,15,17,19,21,23,25,27,29,31,33,35,37,39,41,43,45,47,49,51,53,55,57,59,61,-1,-1,-1,-1,-1,-1,-1,-1,-1,-1,-1,-1,-1,-1,-1,-1,-1,-1,-1,-1,-1,-1,-1,-1,-1,-1,-1,-1,-1,-1,-1,-1],"loss_changes":[2.9140544E3,6.556348E1,3.8902686E2,2.0292297E1,7.226782E1,3.5620795E2,2.284524E2,1.3572937E1,3.6613953E1,3.8536804E1,1.12195114E2,2.7654578E2,1.6720074E2,2.915031E2,1.509884E2,2.4911148E1,2.932312E1,1.716889E1,7.1247253E0,1.0567134E2,9.957239E1,1.6811617E2,7.780762E1,1.209735E2,3.1171344E2,1.7276144E2,1.5058331E2,4.1388086E2,2.4569824E1,2.291571E2,7.2034004E1,0E0,0E0,0E0,0E0,0E0,0E0,0E0,0E0,0E0,0E0,0E0,0E0,0E0,0E0,0E0,0E0,0E0,0E0,0E0,0E0,0E0,0E0,0E0,0E0,0E0,0E0,0E0,0E0,0E0,0E0,0E0,0E0],"parents":[2147483647,0,0,1,1,2,2,3,3,4,4,5,5,6,6,7,7,8,8,9,9,10,10,11,11,12,12,13,13,14,14,15,15,16,16,17,17,18,18,19,19,20,20,21,21,22,22,23,23,24,24,25,25,26,26,27,27,28,28,29,29,30,30],"right_children":[2,4,6,8,10,12,14,16,18,20,22,24,26,28,30,32,34,36,38,40,42,44,46,48,50,52,54,56,58,60,62,-1,-1,-1,-1,-1,-1,-1,-1,-1,-1,-1,-1,-1,-1,-1,-1,-1,-1,-1,-1,-1,-1,-1,-1,-1,-1,-1,-1,-1,-1,-1,-1],"split_conditions":[2.643E1,7.4E0,6.538E1,1.6013334E1,1.909E1,1E0,6.88E1,2.66E0,6.22E0,1.18116665E1,6.22E1,7.23E0,5.18E1,7.923E1,8.278E1,3.521E1,3.974E1,5.21E0,9.71E0,1.1538333E1,1.581E1,4.598E1,2.166E1,6.07E0,6.96E1,6.212E1,7.482E1,6.816E1,6.568E1,8.039E1,7.629E1,-2.3464207E-1,5.049422E-2,-1.2335142E-1,-2.1927519E-1,-2.0289205E-1,3.194849E-2,-1.3728127E-1,-4.5531684E-1,-9.163802E-2,4.3615198E-1,-2.48703E-1,-1.1443148E-1,-4.53697E-2,2.8026953E-1,-1.0640999E-1,-3.6681944E-1,7.270808E-2,-3.1343552E-1,4.9868676E-1,1.3754943E-1,-2.622811E-2,-3.3480954E-1,1.8246988E-2,3.0083367E-1,1.24843396E-1,7.137518E-1,3.6462352E-1,1.0916823E0,1.6993491E-1,5.5039656E-1,-2.7132675E-1,1.2615453E-1],"split_indices":[3,3,5,6,5,1,5,4,3,6,5,5,5,4,3,5,5,3,5,6,6,5,4,5,3,3,3,5,5,3,5,0,0,0,0,0,0,0,0,0,0,0,0,0,0,0,0,0,0,0,0,0,0,0,0,0,0,0,0,0,0,0,0],"split_type":[0,0,0,0,0,0,0,0,0,0,0,0,0,0,0,0,0,0,0,0,0,0,0,0,0,0,0,0,0,0,0,0,0,0,0,0,0,0,0,0,0,0,0,0,0,0,0,0,0,0,0,0,0,0,0,0,0,0,0,0,0,0,0],"sum_hessian":[1.708E3,9.18E2,7.9E2,2.81E2,6.37E2,3.95E2,3.95E2,2.58E2,2.3E1,4.01E2,2.36E2,1.51E2,2.44E2,6.5E1,3.3E2,3.8E1,2.2E2,1.4E1,9E0,8.2E1,3.19E2,1.49E2,8.7E1,5.1E1,1E2,1.55E2,8.9E1,5.8E1,7E0,3.13E2,1.7E1,3.5E1,3E0,1.79E2,4.1E1,1E1,4E0,2E0,7E0,7.9E1,3E0,7.2E1,2.47E2,1.32E2,1.7E1,7.4E1,1.3E1,4.2E1,9E0,4E1,6E1,1.35E2,2E1,6.3E1,2.6E1,4.2E1,1.6E1,2E0,5E0,2.97E2,1.6E1,1E1,7E0],"tree_param":{"num_deleted":"0","num_feature":"7","num_nodes":"63","size_leaf_vector":"1"}},{"base_weights":[-5.9795673E-3,-1.0986329E0,1.263495E0,-1.4657798E0,-9.346297E-1,1.4606307E0,-8.204546E-1,-1.3801094E0,-2.3292325E0,-1.166929E0,-5.366593E-1,-3.9344057E-2,1.7269769E0,-1.1042064E0,1.4811791E0,-1.6431983E0,-1.1411607E0,-1.2546383E0,-3.7082002E0,-1.5203054E-1,-1.2542932E0,2.906135E-2,-1.2242551E0,-4.6572453E-1,1.7885265E-1,4.5613093E0,1.6386268E0,-7.3021877E-1,-2.3342915E0,-3.3430624E-1,4.6184236E-1,-8.167159E-2,-2.0722559E-1,2.2438712E-2,-1.6206181E-1,-1.8444733E-1,2.9392615E-2,-1.6437013E-1,-4.358171E-1,4.31605E-1,-5.7952125E-2,-1.4321433E-1,-7.5977646E-2,7.895615E-2,-1.259726E-1,-4.5122916E-1,-9.842501E-2,-1.2843187E-1,8.28931E-2,7.782397E-1,-1.6121714E-1,1.8690959E-1,7.622778E-2,-1.09526195E-1,2.701213E-1,-2.9233518E-1,-6.8931274E-2,1.5565066E-1,-2.7439547E-1],"categories":[],"categories_nodes":[],"categories_segments":[],"categories_sizes":[],"default_left":[0,0,0,0,0,0,0,0,0,0,0,0,0,0,0,0,0,0,0,0,0,0,0,0,0,0,0,0,0,0,0,0,0,0,0,0,0,0,0,0,0,0,0,0,0,0,0,0,0,0,0,0,0,0,0,0,0,0,0],"id":29,"left_children":[1,3,5,7,9,11,13,15,17,19,21,23,25,27,29,31,33,35,37,39,41,43,45,-1,47,49,51,53,55,57,-1,-1,-1,-1,-1,-1,-1,-1,-1,-1,-1,-1,-1,-1,-1,-1,-1,-1,-1,-1,-1,-1,-1,-1,-1,-1,-1,-1,-1],"loss_changes":[2.3719346E3,5.3966064E1,3.2615747E2,1.7645569E1,5.8355774E1,2.8891565E2,4.669894E1,1.440683E1,3.0911484E1,3.545294E1,9.222553E1,1.1167015E2,1.4627942E2,2.6817726E1,4.710894E1,4.121518E1,9.1369995E1,1.4243099E1,6.2551117E0,6.553332E1,3.1453308E1,1.2939073E2,7.999733E1,0E0,1.0188928E2,3.7048242E2,1.1915198E2,6.4336945E1,1.1550781E1,3.1608149E1,0E0,0E0,0E0,0E0,0E0,0E0,0E0,0E0,0E0,0E0,0E0,0E0,0E0,0E0,0E0,0E0,0E0,0E0,0E0,0E0,0E0,0E0,0E0,0E0,0E0,0E0,0E0,0E0,0E0],"parents":[2147483647,0,0,1,1,2,2,3,3,4,4,5,5,6,6,7,7,8,8,9,9,10,10,11,11,12,12,13,13,14,14,15,15,16,16,17,17,18,18,19,19,20,20,21,21,22,22,24,24,25,25,26,26,27,27,28,28,29,29],"right_children":[2,4,6,8,10,12,14,16,18,20,22,24,26,28,30,32,34,36,38,40,42,44,46,-1,48,50,52,54,56,58,-1,-1,-1,-1,-1,-1,-1,-1,-1,-1,-1,-1,-1,-1,-1,-1,-1,-1,-1,-1,-1,-1,-1,-1,-1,-1,-1,-1,-1],"split_conditions":[2.643E1,7.4E0,2E1,1.6013334E1,1.909E1,8E0,2.3E1,7E0,6.22E0,8.5E0,1.678E1,1.4921667E1,3.477E1,2.366E1,2.208E1,4.14E0,1.4E1,5.21E0,9.95E0,1E0,1.809E1,6.179E1,1.709E1,-4.6572453E-1,3E1,9E0,4E0,2.208E1,5.622E1,1.711E1,4.6184236E-1,-8.167159E-2,-2.0722559E-1,2.2438712E-2,-1.6206181E-1,-1.8444733E-1,2.9392615E-2,-1.6437013E-1,-4.358171E-1,4.31605E-1,-5.7952125E-2,-1.4321433E-1,-7.5977646E-2,7.895615E-2,-1.259726E-1,-4.5122916E-1,-9.842501E-2,-1.2843187E-1,8.28931E-2,7.782397E-1,-1.6121714E-1,1.8690959E-1,7.622778E-2,-1.09526195E-1,2.701213E-1,-2.9233518E-1,-6.8931274E-2,1.5565066E-1,-2.7439547E-1],"split_indices":[3,3,0,6,5,0,0,0,3,3,3,6,3,5,5,4,0,3,5,1,3,5,3,0,5,0,1,5,3,5,0,0,0,0,0,0,0,0,0,0,0,0,0,0,0,0,0,0,0,0,0,0,0,0,0,0,0,0,0],"split_type":[0,0,0,0,0,0,0,0,0,0,0,0,0,0,0,0,0,0,0,0,0,0,0,0,0,0,0,0,0,0,0,0,0,0,0,0,0,0,0,0,0,0,0,0,0,0,0,0,0,0,0,0,0,0,0,0,0,0,0],"sum_hessian":[1.708E3,9.18E2,7.9E2,2.81E2,6.37E2,7.22E2,6.8E1,2.58E2,2.3E1,4.01E2,2.36E2,1.09E2,6.13E2,6.1E1,7E0,1.2E2,1.38E2,1.4E1,9E0,3.2E1,3.69E2,1.3E2,1.06E2,4E0,1.05E2,1.7E1,5.96E2,4.8E1,1.3E1,5E0,2E0,4.2E1,7.8E1,3.6E1,1.02E2,1E1,4E0,3E0,6E0,2E0,3E1,2.7E2,9.9E1,8.2E1,4.8E1,6E0,1E2,3.2E1,7.3E1,1.1E1,6E0,4.71E2,1.25E2,4.4E1,4E0,9E0,4E0,3E0,2E0],"tree_param":{"num_deleted":"0","num_feature":"7","num_nodes":"59","size_leaf_vector":"1"}},{"base_weights":[-6.0343263E-3,-9.987859E-1,1.1285465E0,-9.516623E-1,-2.0575843E0,5.3510284E-1,1.7296304E0,-1.1180444E0,-4.7177857E-1,-8.721745E-1,-4.553291E0,1.6164746E0,-1.3316259E-1,3.2746177E0,1.416341E0,-1.0622535E0,-3.4053226E0,5.2936196E-2,-1.4946377E0,-1.7034321E0,1.7461945E0,2.0928967E0,-6.0918183E0,8.573797E0,1.4214696E0,-1.2921705E0,3.069732E-1,2.4945962E0,8.6179495E0,1.1459068E0,3.0260725E0,-1.1703809E-1,-4.274945E-2,-1.7107463E-2,-4.1996285E-1,-8.428504E-2,1.07414424E-1,-2.0576231E-1,1.7263351E-1,-2.9323536E-1,-7.21607E-2,3.6730328E-1,-6.171925E-2,2.66957E-1,4.697752E-2,-2.5711128E-1,-7.23339E-1,1.2554287E0,3.0622056E-1,-4.667966E-3,2.1706925E-1,-1.1278542E-1,-3.6803463E-1,5.6924384E-2,-2.4496627E-1,9.533467E-2,6.24631E-1,3.2785442E-1,9.851327E-1,1.2850685E-1,-1.2740663E-1,4.5909294E-1,1.6968848E-1],"categories":[],"categories_nodes":[],"categories_segments":[],"categories_sizes":[],"default_left":[0,0,0,0,0,0,0,0,0,0,0,0,0,0,0,0,0,0,0,0,0,0,0,0,0,0,0,0,0,0,0,0,0,0,0,0,0,0,0,0,0,0,0,0,0,0,0,0,0,0,0,0,0,0,0,0,0,0,0,0,0,0,0],"id":30,"left_children":[1,3,5,7,9,11,13,15,17,19,21,23,25,27,29,31,33,35,37,39,41,43,45,47,49,51,53,55,57,59,61,-1,-1,-1,-1,-1,-1,-1,-1,-1,-1,-1,-1,-1,-1,-1,-1,-1,-1,-1,-1,-1,-1,-1,-1,-1,-1,-1,-1,-1,-1,-1,-1],"loss_changes":[1.926071E3,4.3545593E1,2.8372858E2,6.933612E1,1.08449265E2,2.9144055E2,1.8703723E2,7.920105E1,1.2191213E2,6.1741074E1,1.3545366E2,1.9674646E2,1.2792687E2,2.5358398E2,1.4062543E2,4.3082825E1,3.781627E1,1.390378E2,1.4318091E2,2.3222298E1,3.414402E1,1.5539341E0,2.1593536E1,4.9311523E1,1.6619696E2,2.292582E1,1.3297766E2,3.352024E2,2.0386108E1,9.7616E1,8.996918E1,0E0,0E0,0E0,0E0,0E0,0E0,0E0,0E0,0E0,0E0,0E0,0E0,0E0,0E0,0E0,0E0,0E0,0E0,0E0,0E0,0E0,0E0,0E0,0E0,0E0,0E0,0E0,0E0,0E0,0E0,0E0,0E0],"parents":[2147483647,0,0,1,1,2,2,3,3,4,4,5,5,6,6,7,7,8,8,9,9,10,10,11,11,12,12,13,13,14,14,15,15,16,16,17,17,18,18,19,19,20,20,21,21,22,22,23,23,24,24,25,25,26,26,27,27,28,28,29,29,30,30],"right_children":[2,4,6,8,10,12,14,16,18,20,22,24,26,28,30,32,34,36,38,40,42,44,46,48,50,52,54,56,58,60,62,-1,-1,-1,-1,-1,-1,-1,-1,-1,-1,-1,-1,-1,-1,-1,-1,-1,-1,-1,-1,-1,-1,-1,-1,-1,-1,-1,-1,-1,-1,-1,-1],"split_conditions":[2.589E1,7.51E1,6.538E1,2.233E1,1.737E1,1E0,6.88E1,2.147E1,1.7E1,1.6695E1,1.0665E1,2.821E1,2.666E1,7.923E1,8.076E1,3.5588333E1,1E1,1.243E1,5.7356667E1,7.664E1,1.5E1,1.1E1,1.333E1,9E0,7.23E0,2.576E1,7.515E1,6.816E1,6.568E1,8.278E1,6.468E1,-1.1703809E-1,-4.274945E-2,-1.7107463E-2,-4.1996285E-1,-8.428504E-2,1.07414424E-1,-2.0576231E-1,1.7263351E-1,-2.9323536E-1,-7.21607E-2,3.6730328E-1,-6.171925E-2,2.66957E-1,4.697752E-2,-2.5711128E-1,-7.23339E-1,1.2554287E0,3.0622056E-1,-4.667966E-3,2.1706925E-1,-1.1278542E-1,-3.6803463E-1,5.6924384E-2,-2.4496627E-1,9.533467E-2,6.24631E-1,3.2785442E-1,9.851327E-1,1.2850685E-1,-1.2740663E-1,4.5909294E-1,1.6968848E-1],"split_indices":[3,5,5,5,4,1,5,5,0,6,6,3,5,4,5,6,0,6,6,5,0,0,3,0,5,5,6,5,5,3,4,0,0,0,0,0,0,0,0,0,0,0,0,0,0,0,0,0,0,0,0,0,0,0,0,0,0,0,0,0,0,0,0],"split_type":[0,0,0,0,0,0,0,0,0,0,0,0,0,0,0,0,0,0,0,0,0,0,0,0,0,0,0,0,0,0,0,0,0,0,0,0,0,0,0,0,0,0,0,0,0,0,0,0,0,0,0,0,0,0,0,0,0,0,0,0,0,0,0],"sum_hessian":[1.708E3,9.11E2,7.97E2,8.74E2,3.7E1,4.02E2,3.95E2,6.48E2,2.26E2,2.6E1,1.1E1,1.53E2,2.49E2,6.5E1,3.3E2,6.34E2,1.4E1,1.5E2,7.6E1,2E1,6E0,2E0,9E0,3E0,1.5E2,6.8E1,1.81E2,5.8E1,7E0,2.84E2,4.6E1,5.41E2,9.3E1,3E0,1.1E1,8E1,7E1,6.5E1,1.1E1,8E0,1.2E1,3E0,3E0,1E0,1E0,3E0,6E0,1E0,2E0,5.1E1,9.9E1,6.5E1,3E0,1.66E2,1.5E1,4.2E1,1.6E1,2E0,5E0,2.69E2,1.5E1,2E1,2.6E1],"tree_param":{"num_deleted":"0","num_feature":"7","num_nodes":"63","size_leaf_vector":"1"}},{"base_weights":[-4.006518E-3,-8.9329386E-1,1.0291908E0,-6.7006785E-1,-1.0899336E0,4.923927E-1,1.5633899E0,-8.160067E-1,4.6414414E-1,-1.4857868E0,-8.8434327E-1,1.4292312E0,-9.083926E-2,2.4003336E0,1.0703335E0,-6.813091E-1,-1.8413676E0,4.007641E0,6.889138E-2,-8.8622737E-1,-1.7101018E0,2.6269943E-1,-1.2693564E0,1.1926574E0,1.2807283E0,-5.817889E-1,7.611494E-1,3.4990466E0,6.234127E-1,4.8956642E-1,2.3056035E0,-9.07145E-2,-1.2797321E-2,-3.1439447E-1,-1.2107774E-2,-6.86793E-2,7.366194E-1,2.3478118E-1,-5.4889496E-2,-2.278329E-1,-3.975761E-2,-1.4124471E-1,-2.2221728E-1,9.743537E-2,-1.0033131E-1,-1.1740328E-1,-3.910813E-1,-4.210056E-3,1.9557922E-1,-3.2198798E-2,-4.342683E-1,1.9432285E-1,-6.360654E-2,3.036621E-1,1.2682041E0,-8.698147E-1,9.4519325E-2,1.04610555E-1,-7.45947E-2,2.5606448E-2,3.4660065E-1],"categories":[],"categories_nodes":[],"categories_segments":[],"categories_sizes":[],"default_left":[0,0,0,0,0,0,0,0,0,0,0,0,0,0,0,0,0,0,0,0,0,0,0,0,0,0,0,0,0,0,0,0,0,0,0,0,0,0,0,0,0,0,0,0,0,0,0,0,0,0,0,0,0,0,0,0,0,0,0,0,0],"id":31,"left_children":[1,3,5,7,9,11,13,15,17,19,21,23,25,27,29,31,33,35,37,39,41,43,45,-1,47,49,51,53,55,57,59,-1,-1,-1,-1,-1,-1,-1,-1,-1,-1,-1,-1,-1,-1,-1,-1,-1,-1,-1,-1,-1,-1,-1,-1,-1,-1,-1,-1,-1,-1],"loss_changes":[1.5711644E3,3.9609253E1,2.26055E2,7.205136E1,3.8319885E1,2.1650189E2,1.6084436E2,5.1781113E1,6.975275E1,2.0675354E1,1.4297879E2,2.2167569E2,1.0292229E2,2.8285834E2,1.7893967E2,4.2496323E1,9.821498E1,8.389159E1,6.605145E1,3.1066048E1,1.4999329E1,7.485657E1,5.6342438E1,0E0,1.3492438E2,1.5102676E2,1.4988165E2,3.4367004E2,1.7919269E2,1.19049515E2,1.8937576E2,0E0,0E0,0E0,0E0,0E0,0E0,0E0,0E0,0E0,0E0,0E0,0E0,0E0,0E0,0E0,0E0,0E0,0E0,0E0,0E0,0E0,0E0,0E0,0E0,0E0,0E0,0E0,0E0,0E0,0E0],"parents":[2147483647,0,0,1,1,2,2,3,3,4,4,5,5,6,6,7,7,8,8,9,9,10,10,11,11,12,12,13,13,14,14,15,15,16,16,17,17,18,18,19,19,20,20,21,21,22,22,24,24,25,25,26,26,27,27,28,28,29,29,30,30],"right_children":[2,4,6,8,10,12,14,16,18,20,22,24,26,28,30,32,34,36,38,40,42,44,46,-1,48,50,52,54,56,58,60,-1,-1,-1,-1,-1,-1,-1,-1,-1,-1,-1,-1,-1,-1,-1,-1,-1,-1,-1,-1,-1,-1,-1,-1,-1,-1,-1,-1,-1,-1],"split_conditions":[2.643E1,5E0,6.538E1,2.845E1,8E0,1E0,7.213E1,2.227E1,7.1E0,3.62E0,1.2E1,2.821E1,5.18E1,7.125833E1,7.495E1,3.5588333E1,2.456E1,1.212E1,9.09E0,4.26E0,1.316E1,1.64E1,8.047E1,1.1926574E0,7.23E0,7.455E1,6.116E1,8.194E1,6.16E1,7.359E1,7.072E1,-9.07145E-2,-1.2797321E-2,-3.1439447E-1,-1.2107774E-2,-6.86793E-2,7.366194E-1,2.3478118E-1,-5.4889496E-2,-2.278329E-1,-3.975761E-2,-1.4124471E-1,-2.2221728E-1,9.743537E-2,-1.0033131E-1,-1.1740328E-1,-3.910813E-1,-4.210056E-3,1.9557922E-1,-3.2198798E-2,-4.342683E-1,1.9432285E-1,-6.360654E-2,3.036621E-1,1.2682041E0,-8.698147E-1,9.4519325E-2,1.04610555E-1,-7.45947E-2,2.5606448E-2,3.4660065E-1],"split_indices":[3,1,5,5,0,1,5,3,4,4,0,3,5,6,4,6,3,3,3,6,5,3,5,0,5,4,5,4,4,3,3,0,0,0,0,0,0,0,0,0,0,0,0,0,0,0,0,0,0,0,0,0,0,0,0,0,0,0,0,0,0],"split_type":[0,0,0,0,0,0,0,0,0,0,0,0,0,0,0,0,0,0,0,0,0,0,0,0,0,0,0,0,0,0,0,0,0,0,0,0,0,0,0,0,0,0,0,0,0,0,0,0,0,0,0,0,0,0,0,0,0,0,0,0,0],"sum_hessian":[1.708E3,9.18E2,7.9E2,4.32E2,4.86E2,3.95E2,3.95E2,3.83E2,4.9E1,1.64E2,3.22E2,1.51E2,2.44E2,1.45E2,2.5E2,3.4E2,4.3E1,4E0,4.5E1,4.6E1,1.18E2,8.1E1,2.41E2,1E0,1.5E2,1.55E2,8.9E1,8.9E1,5.6E1,1.71E2,7.9E1,2.41E2,9.9E1,2.4E1,1.9E1,2E0,2E0,9E0,3.6E1,1.1E1,3.5E1,7.7E1,4.1E1,5.2E1,2.9E1,2.34E2,7E0,5.1E1,9.9E1,1.46E2,9E0,4.8E1,4.1E1,8.6E1,3E0,1E0,5.5E1,1.18E2,5.3E1,2.9E1,5E1],"tree_param":{"num_deleted":"0","num_feature":"7","num_nodes":"61","size_leaf_vector":"1"}},{"base_weights":[-2.7155725E-3,-8.1140393E-1,9.215031E-1,-7.2410244E-1,-1.3085088E0,-1.8519121E0,1.0098932E0,-9.3070585E-1,-2.6265568E-1,-8.0329984E-1,-2.3010757E0,-4.522015E0,-3.293923E-1,1.2370846E0,-1.6833816E-1,-2.1241255E0,-8.608829E-1,-8.613612E-2,-2.4545584E0,-1.5808648E0,2.2264657E0,2.2514E0,-2.9264202E0,1.8024616E-1,-5.5378824E-1,1.9130199E0,-1.7264371E0,1.018049E0,